# Weight Matrix
0.000000000000000000e+00,0.000000000000000000e+00,0.000000000000000000e+00,0.000000000000000000e+00,0.000000000000000000e+00,0.000000000000000000e+00,0.000000000000000000e+00,0.000000000000000000e+00,0.000000000000000000e+00,0.000000000000000000e+00,0.000000000000000000e+00,0.000000000000000000e+00,-2.168404344971008868e-19,0.000000000000000000e+00,0.000000000000000000e+00,0.000000000000000000e+00,0.000000000000000000e+00,0.000000000000000000e+00,0.000000000000000000e+00,0.000000000000000000e+00,0.000000000000000000e+00,0.000000000000000000e+00,0.000000000000000000e+00,0.000000000000000000e+00,0.000000000000000000e+00,0.000000000000000000e+00,0.000000000000000000e+00,0.000000000000000000e+00,0.000000000000000000e+00,0.000000000000000000e+00,0.000000000000000000e+00,0.000000000000000000e+00,-1.084202172485504434e-19,4.336808689942017736e-19,-4.336808689942017736e-19,0.000000000000000000e+00,-4.336808689942017736e-19,4.336808689942017736e-19,0.000000000000000000e+00,-2.602085213965210642e-18,-8.673617379884035472e-19,8.673617379884035472e-19,-8.673617379884035472e-19,1.734723475976807094e-18,-1.734723475976807094e-18,0.000000000000000000e+00,4.336808689942017736e-19,-4.336808689942017736e-19,0.000000000000000000e+00,-4.336808689942017736e-19,0.000000000000000000e+00,-1.084202172485504434e-19,0.000000000000000000e+00,0.000000000000000000e+00,0.000000000000000000e+00,0.000000000000000000e+00,0.000000000000000000e+00,0.000000000000000000e+00,-1.084202172485504434e-19,-1.084202172485504434e-19,2.168404344971008868e-19,0.000000000000000000e+00,4.336808689942017736e-19,-8.673617379884035472e-19,-8.673617379884035472e-19,0.000000000000000000e+00,0.000000000000000000e+00,0.000000000000000000e+00,-1.058105626264110172e-03,-1.395717778083457872e-02,-2.759025542620113791e-03,0.000000000000000000e+00,-6.938893903907228378e-18,6.938893903907228378e-18,-3.469446951953614189e-18,0.000000000000000000e+00,3.469446951953614189e-18,-3.469446951953614189e-18,-8.673617379884035472e-19,-4.336808689942017736e-19,0.000000000000000000e+00,-2.168404344971008868e-19,0.000000000000000000e+00,0.000000000000000000e+00,0.000000000000000000e+00,0.000000000000000000e+00,2.168404344971008868e-19,-2.168404344971008868e-19,4.336808689942017736e-19,8.673617379884035472e-19,-1.734723475976807094e-18,-5.204170427930421283e-18,-5.204170427930421283e-18,6.938893903907228378e-18,0.000000000000000000e+00,6.938893903907228378e-18,-4.231257366665356484e-03,-9.323332072806667092e-03,-1.027717517764499197e-02,-1.401051999503063333e-02,-1.191690349798392966e-02,-4.790053112947155467e-02,-4.331615631266597100e-02,1.040834085586084257e-17,-3.469446951953614189e-18,0.000000000000000000e+00,5.204170427930421283e-18,-8.673617379884035472e-19,-8.673617379884035472e-19,0.000000000000000000e+00,0.000000000000000000e+00,0.000000000000000000e+00,0.000000000000000000e+00,-1.084202172485504434e-19,6.505213034913026604e-19,8.673617379884035472e-19,1.734723475976807094e-18,-1.089263402489912963e-03,-1.438917938407693192e-04,-3.469446951953614189e-18,-5.493627979743440082e-03,-1.266262737186923254e-02,-6.088167991132618917e-03,-7.895583584956560042e-03,-3.117449591576046397e-03,-1.520105366170964104e-02,-4.289387825888317518e-02,-3.600592122118027871e-02,-3.484709454428905340e-02,-1.133479705451315156e-03,1.604354496968019711e-02,-6.885292566356213118e-03,-9.499911397060727819e-03,4.292171335540446997e-03,5.524837946476325590e-03,6.698701923205877679e-03,5.204170427930421283e-18,8.673617379884035472e-19,2.168404344971008868e-18,0.000000000000000000e+00,0.000000000000000000e+00,0.000000000000000000e+00,4.336808689942017736e-19,8.673617379884035472e-19,1.734723475976807094e-18,-2.084015534762570857e-03,-6.252368825870914526e-04,2.740511561777667082e-03,1.095820415884046772e-03,-1.531265684656644976e-02,-8.060061269751006563e-03,3.509730077422897054e-03,5.499507464968231285e-03,2.500134641886024578e-03,6.625594679955572330e-02,5.703219462905328302e-02,-2.882684034043907217e-02,-3.197722011563687572e-02,3.986692037549156159e-02,-5.084678386222080820e-03,-3.934442144346800979e-02,-4.491334234905972056e-02,-4.638866517870578882e-02,-6.007529955996644688e-02,-7.466029065892587288e-03,1.734723475976807094e-18,0.000000000000000000e+00,0.000000000000000000e+00,0.000000000000000000e+00,-1.084202172485504434e-19,0.000000000000000000e+00,-1.734723475976807094e-18,1.734723475976807094e-18,-9.170290593519814237e-04,2.747444564362461206e-03,4.342103066307008430e-03,6.004344923195903405e-03,8.266013358389834309e-03,6.349905505747988066e-03,1.647253455646696674e-02,1.770610836274444377e-04,1.633693777775926254e-02,2.599807078810556157e-02,-1.842069780642600213e-02,-1.002080289552495507e-02,-1.858593663264196047e-02,-1.104803380459068451e-02,-9.962129802620244695e-03,-2.413759008593143601e-02,-2.617010962361993043e-02,4.856647043473097045e-03,1.551194537171176474e-02,-6.335058061054981565e-03,0.000000000000000000e+00,2.602085213965210642e-18,-4.336808689942017736e-19,0.000000000000000000e+00,-4.336808689942017736e-19,-8.673617379884035472e-19,1.734723475976807094e-18,-2.641794986403048912e-02,-1.706762441946479622e-02,3.570358669690722186e-03,4.158105373133873239e-03,5.846969858220640859e-03,1.362900093756889974e-02,2.274367335977629800e-02,3.145523898365797100e-02,-1.252737139900227115e-02,-4.215302229232650855e-03,-8.349375083744559056e-03,-1.010519331081871641e-02,2.121595206912057358e-02,3.171867047047333826e-02,-7.280900806765112920e-03,2.228940824619676797e-02,-8.587782980626644525e-03,-6.793638970235139907e-03,1.476181242033361082e-02,2.294270283103504171e-02,2.027175916592862184e-02,-3.469446951953614189e-18,0.000000000000000000e+00,4.336808689942017736e-19,-1.084202172485504434e-19,8.673617379884035472e-19,1.734723475976807094e-18,0.000000000000000000e+00,-1.913077903453832412e-02,-1.363841025416393654e-02,-5.600671512702992683e-04,2.016722296090393829e-03,7.750505549643668668e-03,1.270958227306522026e-02,2.791360346017360272e-02,2.619836565565207553e-02,-7.605745505322655808e-03,-1.050373106720268318e-02,-8.485985142739155274e-03,-4.253584868443349709e-03,4.191125195257764530e-02,4.646639879928483874e-02,1.526658165373264570e-02,2.169621720038629464e-02,-2.696936913632666522e-03,-2.968514728872471281e-03,9.003309640945898057e-03,-5.782228543268663062e-03,-2.434513003622448823e-03,-2.081668171172168513e-17,-1.734723475976807094e-18,-6.505213034913026604e-19,4.336808689942017736e-19,1.301042606982605321e-18,-3.469446951953614189e-18,3.469446951953614189e-18,-2.106227698715393976e-02,-8.927512864260526287e-03,-2.315521906860310009e-03,7.955342848498352104e-03,1.054108193110792069e-02,1.559564224203899285e-02,1.804006076225088406e-02,2.861032567596052956e-03,1.303888048191485100e-03,1.474700275242164793e-02,1.677875062168904252e-03,1.412525122815311285e-04,4.789086971885930799e-03,3.250821688147954858e-02,2.000999634362855134e-02,1.281907031152605680e-02,1.426832285403391298e-02,1.514018835142004471e-02,3.495273819369067517e-03,-1.494154899687414467e-02,-2.765068795384479500e-02,-6.938893903907228378e-18,2.602085213965210642e-18,-4.336808689942017736e-19,0.000000000000000000e+00,0.000000000000000000e+00,-1.734723475976807094e-18,-5.204170427930421283e-18,-2.160584260710313176e-02,-2.147444096744291486e-03,-6.375931062458789489e-04,9.734317075131081187e-03,6.499222349009334265e-03,1.533879655002164111e-02,2.506088209450224591e-02,1.062588680146532572e-02,1.423754639113881948e-02,1.334288041598297170e-03,-2.553042036015074068e-02,-2.957990355500506041e-02,-1.704839336626379209e-02,8.185011763505778415e-03,3.689239199990280993e-02,7.142157750558306151e-03,2.941307804852002356e-02,9.034965127586148947e-03,1.442358746884878952e-02,-1.681427363535020758e-02,-2.420250502436733717e-02,-1.242653560902081539e-03,-1.734723475976807094e-18,4.336808689942017736e-19,0.000000000000000000e+00,0.000000000000000000e+00,-8.673617379884035472e-19,9.591481077872547611e-04,-2.322646069140718930e-02,-1.889488922286658434e-03,5.412753312419561758e-03,4.744377807061404828e-03,8.610996473110699156e-03,1.715525582255830739e-02,1.514901670546400791e-02,4.145390414970707288e-02,1.752576926402182877e-02,-2.036021271004179178e-02,-3.246164663479943202e-02,-1.639721512953954546e-02,-1.460375729523365196e-02,2.386275718229823040e-02,4.312516146810548706e-02,7.549139481319716571e-03,1.204898516665005997e-02,3.485300123877488332e-03,3.319084810329717139e-02,2.241645496091395837e-03,1.612851834966397280e-02,-1.974064267976152753e-03,-2.602085213965210642e-18,-4.336808689942017736e-19,0.000000000000000000e+00,4.336808689942017736e-19,8.673617379884035472e-19,2.098270910959217778e-02,-9.597180022571656643e-03,8.461978002440789098e-03,-9.907396008886765193e-05,-5.927743427125306552e-03,1.166427787156795737e-02,2.673792878991944344e-02,2.175168881434623447e-02,2.171942448050941110e-02,1.449137696799551733e-02,-2.412310000516613984e-02,-2.568666098154001598e-02,-3.301710506451329546e-02,-3.254608822884356295e-02,3.091169089867874462e-02,4.877227870357579015e-02,2.024225278356531904e-02,7.438350896948942026e-03,1.962984281526031216e-02,2.617792015918691401e-02,1.737864399010511166e-02,1.550908962568773621e-02,2.919476351211912693e-03,8.673617379884035472e-19,0.000000000000000000e+00,-1.084202172485504434e-19,4.336808689942017736e-19,8.673617379884035472e-19,1.744896703112964326e-02,-7.661354964617602369e-03,6.728812784718454093e-03,-4.310715813101100025e-03,5.199737750729349628e-03,2.072450703302709807e-02,1.528291889716182350e-02,9.952711252228706174e-03,1.554473235446013346e-02,1.997585397473215785e-02,-4.982369180703091760e-02,-2.727668452253671771e-02,-9.594781947551181411e-02,-4.230319778580018952e-02,2.740619571379570088e-02,4.333520569643146969e-02,2.748526306337782665e-02,2.241573276357700095e-02,3.581450675669277384e-02,5.095741898944150527e-02,2.565510690637386182e-02,1.205863525914398909e-02,3.252003752301533407e-03,-4.336808689942017736e-19,-2.168404344971008868e-19,0.000000000000000000e+00,2.168404344971008868e-19,-4.336808689942017736e-19,-1.734723475976807094e-18,-6.091064182619256723e-03,4.674583504997491257e-03,1.933376137311663967e-02,2.550422245413987155e-02,1.748005250626834262e-02,-9.538653826168766448e-03,4.871291017423598838e-03,3.077686046510556828e-02,1.849017273911789799e-02,-4.607077897609824363e-02,-7.954231337514883204e-02,-1.286455133511371085e-01,-3.449310733239867310e-02,4.605631985540464823e-02,4.865564129182838038e-02,2.933705423993087508e-02,4.040282005519520853e-02,3.764298760877560213e-02,3.178979207602743162e-02,1.808678670411573153e-02,1.115364844996694083e-02,7.011523213638425935e-03,8.673617379884035472e-19,2.168404344971008868e-19,0.000000000000000000e+00,0.000000000000000000e+00,-4.336808689942017736e-19,0.000000000000000000e+00,3.941733793634796118e-03,1.932273691872064825e-02,2.721368351063547381e-02,1.768370184620227104e-02,2.439005616579525276e-02,2.594744725673585675e-02,1.437793776117654056e-02,3.590535272089737800e-02,-2.146674240953271029e-02,-7.770541401274454196e-02,-8.889053934290935821e-02,-7.047626980643324768e-02,5.550483432670075268e-04,8.082165200179140807e-02,3.976641787890723700e-02,2.828908953133854598e-02,4.233508110640175903e-02,2.769130680584210025e-02,2.692888899531664312e-02,9.477903111624580434e-03,1.193511592231716323e-02,5.316810005780076877e-03,2.602085213965210642e-18,2.168404344971008868e-19,0.000000000000000000e+00,4.336808689942017736e-19,0.000000000000000000e+00,3.469446951953614189e-18,6.520116043561299812e-03,2.358745828275139386e-02,1.847713491353809162e-02,1.404928882844305726e-02,3.982982991938750772e-02,6.174884274900087344e-02,5.165587859479429250e-02,9.368378904384612460e-03,-4.082450795670192201e-02,-7.003816572211923885e-02,-6.994026848394976903e-02,-1.946628941763497642e-02,2.832217490389427050e-02,6.724626512266862477e-02,5.681840309162361491e-02,4.215754086199130501e-02,3.462837283543066663e-02,3.009775782177806502e-02,1.857811650276999099e-02,1.089122289828589607e-03,3.264666068827273143e-04,-2.711330125028735272e-03,2.602085213965210642e-18,2.168404344971008868e-19,0.000000000000000000e+00,2.168404344971008868e-19,-1.734723475976807094e-18,-1.734723475976807094e-18,1.282251891527647590e-02,1.788946231172483872e-02,1.339346323300191766e-02,2.867026847617308583e-02,6.362982676022359285e-02,4.877537045191947251e-02,4.268261858864656755e-02,2.395672504399767866e-02,-3.015428868848790689e-02,-5.611851340487640505e-02,-3.673675169615363972e-02,-7.812083403021755773e-03,2.320590294554207567e-02,3.576117010331791857e-02,4.824775362537132156e-02,2.960268815151874400e-02,1.645783423131683132e-02,1.814920930083366996e-02,8.858980146586890869e-03,1.954108309947171634e-03,-4.789687459987548857e-03,-2.396437240021694753e-02,2.602085213965210642e-18,-8.673617379884035472e-19,0.000000000000000000e+00,0.000000000000000000e+00,1.734723475976807094e-18,-1.734723475976807094e-18,1.926405038747274617e-02,2.354763350599895985e-02,2.809950649491002594e-02,4.643595873748428138e-02,6.823686873090945015e-02,1.070093302516812034e-02,-3.026190246940313466e-03,3.604391479244645202e-02,-3.239471071375543687e-02,-5.669450374839916235e-02,-2.251187735717633323e-02,1.074816273092131513e-03,5.564945091822690038e-03,2.091820636871983413e-02,8.331277395158209753e-03,2.606533275168830543e-02,3.897008734327217505e-04,3.115626624203775286e-03,9.520522431577124745e-03,6.147142451274043712e-03,-7.475851930182403696e-03,-2.089669658709401162e-02,-1.734723475976807094e-18,-2.168404344971008868e-19,0.000000000000000000e+00,2.168404344971008868e-19,1.734723475976807094e-18,3.469446951953614189e-18,2.332474791187293117e-02,2.504686344338364484e-02,3.487526964463613655e-02,3.034231503050882628e-02,3.587166886551757666e-02,-8.719125784876647495e-03,2.359440690016090247e-03,1.235882283877351440e-02,-2.593587234721535240e-02,-3.981421412868178800e-02,-1.086210301278124624e-02,5.381811991677195456e-03,-2.630091395170067875e-03,1.498448567547751298e-02,2.325036927033127809e-02,2.996727823400625879e-02,8.208351579063070946e-03,1.491280272799305057e-02,1.401390332644536496e-02,7.591290672199286355e-03,-4.608608971703141710e-05,-1.169490298887770896e-02,-1.734723475976807094e-18,-2.168404344971008868e-19,0.000000000000000000e+00,0.000000000000000000e+00,-1.734723475976807094e-18,1.040834085586084257e-17,1.368689088416069968e-02,1.425801787614057806e-02,2.661537016427653266e-02,1.960613297020220858e-02,3.605741188752028745e-03,-1.235477879269262190e-02,1.568643408319206345e-02,2.790127848101111446e-02,7.050351067704206665e-03,1.075883384567700649e-02,1.596438290587402775e-02,4.979288957504622581e-03,-2.657935646448704795e-02,-4.902746837484817793e-02,-3.393365178027434731e-02,1.681066430723431038e-02,-1.073196704140122471e-02,1.662913348140587777e-03,1.026002732139887422e-02,1.543010280005252532e-03,-9.765351959368001947e-03,-1.116616569440663509e-02,-1.734723475976807094e-18,1.084202172485504434e-19,-1.084202172485504434e-19,4.336808689942017736e-19,-8.673617379884035472e-19,3.469446951953614189e-18,2.200960132874169722e-02,1.650981153353100334e-02,1.419574643750326839e-02,4.632910470911692086e-03,-1.055332303524293865e-02,-1.611396693969499453e-03,4.623602057280839367e-02,7.801785259780447124e-02,1.521834103391749016e-02,5.078134528150166777e-02,4.457320920688481042e-03,-1.776920709866687542e-03,-3.941146781374988556e-02,-3.426247249083414631e-02,-1.942816113336026662e-02,-3.863920928161984625e-03,-3.802688545215823779e-02,-1.214525346569404057e-02,7.169248821426259938e-03,9.709376679095816504e-04,-1.192750977852581953e-02,-1.458063585828312143e-02,0.000000000000000000e+00,-1.084202172485504434e-19,0.000000000000000000e+00,4.336808689942017736e-19,0.000000000000000000e+00,-5.204170427930421283e-18,2.158054994926349168e-03,-3.605697544386626645e-03,2.992797783080694204e-04,-1.205923679366923719e-02,-1.544750918548570134e-02,-2.693363228198665874e-02,-5.116988855897584842e-03,2.295356023594793959e-02,2.856135992261223111e-02,3.655027663264178578e-02,2.370178888894153291e-02,-2.165088723335925613e-02,-1.440233868519021423e-04,-2.630766287951858545e-02,-2.512022761041766972e-02,-2.943556503412228520e-03,-3.445870198747633811e-02,-1.541932762351683715e-02,9.193320038628974636e-03,9.564806065978544158e-03,3.900275473270820893e-03,-1.029983187034548900e-02,0.000000000000000000e+00,-1.084202172485504434e-19,0.000000000000000000e+00,0.000000000000000000e+00,4.336808689942017736e-19,1.734723475976807094e-18,-1.829853727044353576e-02,-5.604279695728802899e-03,-7.238962152095154874e-03,-5.915453911485187011e-03,-3.638335590595310857e-03,-2.033836846642955026e-02,1.151474530823989179e-02,5.209338596783115449e-02,5.914889475093312171e-02,2.743341666811166535e-02,7.557898189874276418e-03,-7.119944434481301210e-03,-2.467351333551904419e-02,-2.746028482970665902e-02,-1.173451750090015455e-02,-4.800560013008259991e-03,-3.683513269182661642e-02,1.289517839742036764e-03,6.503458059182525355e-03,1.786059492202975857e-03,8.673617379884035472e-19,-8.673617379884035472e-19,-4.336808689942017736e-19,0.000000000000000000e+00,0.000000000000000000e+00,0.000000000000000000e+00,0.000000000000000000e+00,-8.673617379884035472e-19,-7.673529404579519306e-03,-1.375127439073340826e-02,-3.421544555510611790e-03,7.259841243902637187e-03,1.000296497684300193e-02,-1.650841143318826365e-02,-1.249984513222831065e-02,4.854860525730159831e-03,3.531322233665975391e-02,4.744233779877655988e-02,2.859994917992850910e-02,-1.187077299513305401e-02,-4.963475122095474534e-03,-7.247527768172695728e-03,1.198642513750272295e-02,-1.522634237650748699e-02,-1.242997871312878644e-03,6.938893903907228378e-18,-1.734723475976807094e-18,0.000000000000000000e+00,-8.673617379884035472e-19,4.336808689942017736e-19,2.168404344971008868e-19,0.000000000000000000e+00,0.000000000000000000e+00,0.000000000000000000e+00,8.673617379884035472e-19,-6.505213034913026604e-19,0.000000000000000000e+00,0.000000000000000000e+00,-1.734723475976807094e-18,3.469446951953614189e-18,3.469446951953614189e-18,-6.938893903907228378e-18,2.982424066930097761e-04,4.462421801596436199e-04,-3.821084265702707344e-02,-2.062093854399409815e-02,-6.938893903907228378e-18,0.000000000000000000e+00,1.387778780781445676e-17,0.000000000000000000e+00,3.469446951953614189e-18,-3.469446951953614189e-18,-5.204170427930421283e-18,0.000000000000000000e+00,8.673617379884035472e-19,0.000000000000000000e+00,0.000000000000000000e+00,2.168404344971008868e-19,0.000000000000000000e+00,0.000000000000000000e+00,0.000000000000000000e+00,0.000000000000000000e+00,0.000000000000000000e+00,0.000000000000000000e+00,8.673617379884035472e-19,1.734723475976807094e-18,3.469446951953614189e-18,3.469446951953614189e-18,-3.469446951953614189e-18,3.469446951953614189e-18,0.000000000000000000e+00,-1.040834085586084257e-17,-6.938893903907228378e-18,0.000000000000000000e+00,-3.469446951953614189e-18,3.469446951953614189e-18,0.000000000000000000e+00,6.938893903907228378e-18,-3.469446951953614189e-18,1.734723475976807094e-18,1.734723475976807094e-18,2.602085213965210642e-18,0.000000000000000000e+00,-4.336808689942017736e-19,-1.084202172485504434e-19,0.000000000000000000e+00,0.000000000000000000e+00,0.000000000000000000e+00,0.000000000000000000e+00,0.000000000000000000e+00,0.000000000000000000e+00,0.000000000000000000e+00,0.000000000000000000e+00,-2.168404344971008868e-19,-4.336808689942017736e-19,4.336808689942017736e-19,-8.673617379884035472e-19,1.734723475976807094e-18,1.734723475976807094e-18,8.673617379884035472e-19,1.734723475976807094e-18,-3.469446951953614189e-18,0.000000000000000000e+00,3.469446951953614189e-18,3.469446951953614189e-18,-8.673617379884035472e-19,0.000000000000000000e+00,-8.673617379884035472e-19,1.301042606982605321e-18,2.168404344971008868e-19,4.336808689942017736e-19,-4.336808689942017736e-19,0.000000000000000000e+00,0.000000000000000000e+00,0.000000000000000000e+00,0.000000000000000000e+00
0.000000000000000000e+00,0.000000000000000000e+00,0.000000000000000000e+00,0.000000000000000000e+00,0.000000000000000000e+00,0.000000000000000000e+00,0.000000000000000000e+00,0.000000000000000000e+00,0.000000000000000000e+00,0.000000000000000000e+00,0.000000000000000000e+00,0.000000000000000000e+00,1.734723475976807094e-18,6.938893903907228378e-18,-5.204170427930421283e-18,-5.204170427930421283e-18,0.000000000000000000e+00,0.000000000000000000e+00,0.000000000000000000e+00,0.000000000000000000e+00,0.000000000000000000e+00,0.000000000000000000e+00,0.000000000000000000e+00,0.000000000000000000e+00,0.000000000000000000e+00,0.000000000000000000e+00,0.000000000000000000e+00,0.000000000000000000e+00,0.000000000000000000e+00,0.000000000000000000e+00,0.000000000000000000e+00,0.000000000000000000e+00,-5.204170427930421283e-18,1.734723475976807094e-18,-1.040834085586084257e-17,2.428612866367529932e-17,0.000000000000000000e+00,0.000000000000000000e+00,1.387778780781445676e-17,0.000000000000000000e+00,2.775557561562891351e-17,2.775557561562891351e-17,-5.551115123125782702e-17,8.668637641592466525e-03,2.459886096656564020e-02,1.187020909494303916e-02,0.000000000000000000e+00,6.938893903907228378e-18,1.387778780781445676e-17,3.469446951953614189e-18,-1.040834085586084257e-17,-5.204170427930421283e-18,0.000000000000000000e+00,0.000000000000000000e+00,0.000000000000000000e+00,0.000000000000000000e+00,0.000000000000000000e+00,0.000000000000000000e+00,-5.204170427930421283e-18,-6.938893903907228378e-18,6.938893903907228378e-18,-3.469446951953614189e-18,0.000000000000000000e+00,5.551115123125782702e-17,-5.083786512058680040e-03,-1.028929266812481091e-02,-1.500505124793596878e-02,-1.344954672850051658e-02,-6.795825150174214513e-02,-6.976830303704445457e-02,-7.939880469946714037e-02,-5.286373221549978130e-02,-6.020298274306939978e-02,-4.152465266057281390e-02,-1.588245530987525411e-02,-2.863404357152210533e-03,-9.451708069611819418e-03,-6.146144062015163057e-03,2.775557561562891351e-17,4.163336342344337027e-17,-6.938893903907228378e-18,0.000000000000000000e+00,0.000000000000000000e+00,0.000000000000000000e+00,0.000000000000000000e+00,0.000000000000000000e+00,-1.387778780781445676e-17,6.938893903907228378e-18,0.000000000000000000e+00,-1.387778780781445676e-17,0.000000000000000000e+00,0.000000000000000000e+00,-1.796498010617295082e-02,-1.078664278467111048e-01,-2.733459609007060642e-03,1.420306646360525171e-02,-1.098491267019417045e-02,-7.287020884875684834e-03,-9.887471600616315470e-02,-8.018569687445853411e-02,-3.176925733655922013e-02,3.162619796664814520e-02,-4.782107973803120804e-02,-8.681237686981320423e-02,1.645004750092263768e-01,-5.896784211677330578e-03,3.270785991546376614e-02,1.181817080065528103e-02,-4.163336342344337027e-17,-6.938893903907228378e-18,-5.204170427930421283e-18,0.000000000000000000e+00,0.000000000000000000e+00,-5.204170427930421283e-18,0.000000000000000000e+00,-6.938893903907228378e-18,0.000000000000000000e+00,-3.597310694326041891e-02,6.305520103486267347e-02,-2.832051286599828188e-01,-1.158780337727231824e-02,-9.529358373547465455e-03,6.325328833843281429e-02,-6.757849159793827276e-03,-8.571543861314534496e-02,1.272663447161861416e-01,-1.184857879623272270e-01,-1.047036526256800437e-01,-5.497553963188350767e-02,-3.874169883731037878e-02,4.578436125356755149e-02,-2.549173342811450471e-02,2.064929836460018819e-01,2.061073957918842237e-01,-1.086482686217503657e-01,2.477726088227708012e-02,1.743044609631652642e-02,-1.387778780781445676e-17,1.387778780781445676e-17,0.000000000000000000e+00,0.000000000000000000e+00,0.000000000000000000e+00,-6.938893903907228378e-18,2.775557561562891351e-17,0.000000000000000000e+00,-3.904769823840885390e-02,-1.108442383603559928e-01,-5.055531564444382120e-02,9.665478926839379814e-02,9.805155377935367844e-02,-1.243740423269758533e-01,-1.524362296221614121e-01,-5.461370152653244325e-02,-1.095746882609888173e-01,-2.316588839156685786e-02,1.074505819025053377e-01,-5.093733037212166970e-02,2.914301136147856575e-02,4.243989828520478014e-03,9.906086584864581823e-02,4.176672980000861735e-02,-1.453188254309942251e-01,8.167585561912418801e-02,-2.129338402453861967e-02,2.281674408809647447e-02,0.000000000000000000e+00,-4.163336342344337027e-17,-5.204170427930421283e-18,0.000000000000000000e+00,-5.204170427930421283e-18,6.938893903907228378e-18,4.163336342344337027e-17,1.031378167826046965e-02,3.993711667628034589e-02,1.112703193263842039e-03,1.051411770400058621e-01,-4.363601092761681954e-03,-1.246757288750062198e-01,-2.460763402408341557e-02,6.345588439766597366e-02,2.115665489907166130e-02,1.297655692872005107e-01,7.130891619825563410e-02,-5.098516597777025261e-02,-8.172709014285994833e-02,-1.286533577182438215e-01,1.084749767357231498e-01,-4.434108930927660452e-03,1.741893646131575935e-02,-6.826336435060575969e-02,-7.338300062010660874e-02,1.116456268529966295e-01,9.338974960116214197e-02,1.110223024625156540e-16,-8.326672684688674053e-17,2.081668171172168513e-17,0.000000000000000000e+00,1.387778780781445676e-17,2.775557561562891351e-17,5.551115123125782702e-17,-5.686470210809552173e-02,-2.293992330020067083e-02,-1.651728727051504642e-01,3.446786941806284643e-02,-1.451707724134740640e-01,7.654354529603983603e-02,4.931941514281412697e-02,4.329486693201989311e-04,-1.522524678288054711e-01,-8.847349065416523772e-02,-4.422492314544362868e-03,-1.958725450914938770e-03,9.662001228760486171e-03,9.258713669405516100e-02,1.113796425004531798e-01,-1.306522749702976327e-02,7.431714205992556721e-02,1.150510919205086635e-01,6.867766704837441338e-02,1.955698327402889958e-01,2.526727371275885869e-01,1.110223024625156540e-16,2.775557561562891351e-17,-6.938893903907228378e-18,1.528891476522326043e-03,6.938893903907228378e-18,-4.163336342344337027e-17,-2.775557561562891351e-17,-6.034071308651484111e-02,2.166552287358308737e-02,-5.459130865263184251e-02,-2.953247312550755233e-03,-7.658697997201086016e-02,3.637196466757641744e-02,-2.246286639280337116e-03,-9.203520131504250301e-02,2.181990592946520535e-01,1.030120396170977615e-02,1.233391717795156300e-01,3.542490533690959009e-02,1.590558653749921669e-01,-5.818253368296844030e-02,8.750254104669030752e-02,-3.229694755497014569e-02,5.516606950901525863e-02,8.544480653061747866e-02,9.901418714996446102e-02,-1.607627195600191961e-02,1.032244956105758948e-01,0.000000000000000000e+00,2.775557561562891351e-17,1.040834085586084257e-17,-1.387778780781445676e-17,2.775557561562891351e-17,2.775557561562891351e-17,1.665334536937734811e-16,3.065729258942645474e-02,7.919928895083847009e-02,-6.398286323836030465e-02,3.379618461013304820e-02,-8.258196141525619982e-03,4.059122329233277870e-02,3.922058308109610536e-02,3.039210352761967382e-02,-1.212773735799413943e-01,1.808170257958086058e-01,9.490173994069106556e-02,-2.243717656320823317e-01,2.254771673548078281e-02,9.304957112932478458e-02,-1.275598555744755225e-01,1.028679900204755304e-01,-9.519237689011417203e-03,-7.360483519056115753e-02,-2.083880993566133988e-01,1.928780683153719089e-03,-9.175320421899435530e-02,-5.551115123125782702e-17,2.775557561562891351e-17,2.081668171172168513e-17,-3.469446951953614189e-18,-6.938893903907228378e-18,-5.551115123125782702e-17,-1.095646064270694442e-02,-1.268377461075925750e-02,-6.027810468898264773e-02,-4.108182657907966107e-02,5.154840018690362569e-02,-5.318509667950499509e-02,1.799154646373146704e-03,1.748547516575262306e-01,-1.149464452723055752e-01,-4.270911582039114973e-02,1.718587463537953330e-01,1.724398708251957402e-01,7.257961243381660932e-02,3.963725487748992471e-02,-9.394071826209138276e-02,5.518646113371192263e-02,6.647493770198986685e-02,-2.301702061206079009e-02,-8.070143104053961736e-03,2.250847171953059833e-01,3.587826639902658155e-02,2.919227940483687389e-03,-4.257203889787439244e-02,-1.387778780781445676e-17,-2.775557561562891351e-17,1.387778780781445676e-17,-2.775557561562891351e-17,5.551115123125782702e-17,-4.274814561583453743e-02,-1.575043890798059065e-01,-1.772523007617039237e-01,7.515976089552978134e-02,2.774731586801740257e-02,5.394743100728827123e-02,7.317513352708110430e-02,1.286572945359965581e-01,1.176660856802969057e-01,1.865480870735222729e-02,2.031236699562212755e-01,-1.517619024161837027e-02,3.349410544195485784e-02,7.386960898980976520e-02,1.570873797252848592e-01,1.637665300037506599e-01,1.463453874699205404e-01,1.838871817883385162e-01,1.316581536067953362e-01,-1.260366046404315377e-02,-8.320211129768650959e-02,-2.096782964541533956e-02,-1.097509919656218386e-01,1.387778780781445676e-17,-1.387778780781445676e-17,-5.204170427930421283e-18,4.857225732735059864e-17,1.387778780781445676e-17,1.147769675480251883e-01,3.503171921841258252e-02,1.720009090898579340e-01,5.595111746459469071e-02,-3.071969508605082444e-02,6.828425446297289869e-02,2.394962515157826599e-02,5.713619053567764450e-02,2.282335108837331150e-01,8.484814717522223826e-02,-6.483795486816854720e-03,2.059498789652847162e-02,-1.661165049374162539e-01,-4.443877448031741118e-02,9.655662810098208926e-02,3.225188064395204113e-02,1.449204264267067721e-02,1.216107569775950470e-01,7.663664533068503815e-02,1.195752279353572423e-01,2.478038962226640496e-01,1.464458264591577685e-01,7.432763226549216062e-02,-7.033242318761206979e-03,-3.469446951953614189e-18,-5.204170427930421283e-18,3.469446951953614189e-18,-1.387778780781445676e-17,-3.791300826514190647e-02,-4.196159900757279182e-04,8.280758496707257832e-02,1.840469301877560304e-01,8.250393145364189051e-02,1.376749837296259993e-01,-3.756787681966584913e-02,-4.993649691237994626e-02,-2.554246156766112885e-02,1.009169357363446790e-01,-1.310776360737586632e-01,-1.876726569214991480e-01,-1.086511379718779757e-01,-8.825868514500401218e-02,1.551484665800650919e-02,-2.578060484592223367e-02,1.039567334538256116e-01,-7.543696075266725920e-02,5.933547599710942144e-02,1.448797998946769194e-01,1.325340605674862338e-01,-6.947152878164442047e-02,3.024008988693796529e-02,-3.995728303084908339e-03,1.040834085586084257e-17,0.000000000000000000e+00,1.734723475976807094e-18,3.469446951953614189e-17,-1.295510228140858144e-01,8.886742263306168788e-02,-7.783672409090502953e-03,1.538458410799263820e-01,-1.380197911308944647e-03,2.534747436909780549e-01,4.925527556341778579e-02,8.790490607894901887e-02,8.345848572167968715e-03,4.811136668718565823e-02,-6.736155181461267460e-02,-2.862710728292363616e-01,-2.602314556652043365e-01,-2.985745868429372507e-01,-1.879296492830584420e-03,1.127532917621082431e-02,1.544047558029548739e-02,6.117793922043768262e-02,2.677412633881505188e-01,-1.796086729070267562e-02,2.728361128154926929e-02,-4.777697391069846145e-02,-9.612409289937617896e-02,-3.166494872816803807e-02,3.469446951953614189e-18,0.000000000000000000e+00,0.000000000000000000e+00,-1.073659100409712908e-03,2.001037420138906953e-02,1.652796354228625031e-01,-1.255668058450687408e-01,-3.766266621872760290e-02,1.426385242618410376e-01,1.605688840870205247e-01,3.705335618352723071e-02,-3.188537568941773870e-03,6.053825391624104157e-02,8.543908954331169703e-02,-2.339869801709124619e-01,-1.087286254223969184e-01,-1.188978514464331671e-01,-4.566542825404007466e-02,-8.824010527510367519e-02,2.933333159681328350e-02,-8.993189931778289292e-02,1.385699345620979850e-01,6.105393926631841328e-03,6.494713551186176437e-02,1.499410049329096550e-01,-1.046783961686044151e-01,9.205960366781096305e-02,-4.281913432510003198e-02,0.000000000000000000e+00,0.000000000000000000e+00,-3.469446951953614189e-18,-5.090659235916443481e-03,1.037450941580525532e-02,-1.076540847245698318e-01,-3.767513942723710318e-02,1.124374784270821825e-01,-2.455567410391190641e-02,-3.820568929677248260e-02,5.985349780590809576e-02,7.650231932984563610e-02,-7.240575525882364527e-03,-1.908365609238509286e-01,-2.239054991277866780e-01,-3.045210089873973125e-01,-1.287792024856269091e-01,-4.941749330914513294e-02,-1.176931113101568338e-01,-1.264294041160014537e-01,-5.955003755659715736e-02,-1.116557271311477972e-01,-2.834147907127532173e-02,-1.126107394630691538e-01,-2.997765872761348760e-03,7.644857406298810609e-02,-1.000150645128748961e-01,-3.436062103739362938e-01,-1.040834085586084257e-17,0.000000000000000000e+00,-6.938893903907228378e-18,-6.725256379023034081e-03,-4.287268817416250988e-02,3.759839711355628111e-03,2.427256434898228399e-01,-7.242265681105841679e-02,-1.338748812521173281e-01,-5.270619506700935375e-03,8.747436373085559769e-02,8.283638279146121608e-02,-2.246467316581999829e-01,-1.043178242948172296e-01,-3.026577210978833588e-01,-2.426111480722731306e-01,-9.510701167183688298e-02,-9.435095445580954365e-02,-5.904681139871381657e-02,-2.525406247116335212e-02,2.718909240067174382e-02,2.034068505349237443e-02,-5.114606716258196517e-02,-4.289675012888533034e-02,5.228754905354560112e-02,4.014692735298891479e-02,-5.975457583499714509e-02,-6.937761907680080331e-02,-6.253866722403415151e-03,3.469446951953614189e-18,6.938893903907228378e-18,-1.446287974989454717e-03,-2.585006221466770726e-02,-4.281536448896483549e-02,-3.101146680647404175e-01,-1.696433575154352447e-01,-5.393085799579400152e-02,1.069817255330607342e-01,6.872286863782894883e-02,8.603903059423634314e-02,1.191539971156398148e-01,2.236350288302926814e-01,-1.407523042447891837e-01,-1.728305500436485009e-01,5.425175902451506715e-04,-1.132295778861456270e-01,2.268843163151768039e-02,1.071803173587160263e-02,2.605254755089173035e-02,-1.022389564546360985e-01,4.560026683883110221e-02,5.251778700985193504e-02,-9.033014512262405038e-02,-4.672386823234997433e-02,-5.901985554789819510e-02,-4.705384498513764946e-03,-1.438075641750635736e-04,0.000000000000000000e+00,1.040834085586084257e-17,-3.998650131424572041e-03,-2.737708171155424017e-02,-3.426307984245469118e-02,-2.262631818026861197e-02,-5.881974393900391007e-02,5.662571114114545168e-02,-6.964942913986704731e-02,-5.511036974862792981e-02,-1.036727795161844767e-01,-1.733878193236726428e-02,5.404635584070671683e-02,-7.755246622195821615e-02,-1.663977018241184769e-01,-1.177585832750817074e-01,-5.385695144724539363e-02,-1.884476779204715124e-01,3.788133773299631746e-02,-8.138716986641369999e-03,2.348483479499113846e-02,4.784154908013477092e-02,8.852351011868486719e-03,2.464293758750624175e-02,2.313109386148991253e-02,-2.082509018214731555e-02,-3.930672574757379523e-02,6.938893903907228378e-18,0.000000000000000000e+00,0.000000000000000000e+00,-2.795031457491096993e-02,3.429306539039854440e-03,9.471071483076265451e-02,-2.949151536732141921e-03,4.566365187548671045e-02,-2.322657092399582623e-02,6.867591359061009371e-05,9.647711723387297766e-02,1.588704108583649521e-02,1.179065167510436885e-01,1.378608309930690057e-01,1.270665227621216031e-01,-1.866738642641794232e-01,-1.036826946802205107e-01,-6.962332384667438423e-02,-1.228149455104662890e-01,-2.861333399635529462e-02,-2.934271143843281138e-02,7.030555312225161835e-02,-1.040672883366342838e-01,3.556518496721194911e-02,-3.346289132513027148e-02,-3.496473416262363410e-02,-3.622982890014814217e-02,-1.924877310464564312e-02,-6.938893903907228378e-18,-5.204170427930421283e-18,1.734723475976807094e-17,-6.113706733391702230e-02,3.570929595462457584e-03,2.483578584095424979e-03,-1.300583662912022653e-01,-1.091546275858061854e-01,1.326792797996967366e-02,-1.140892466540195382e-01,-1.441200643043725194e-01,5.769904611351051038e-02,1.055056757228747255e-01,9.770928239808518434e-03,-8.206245450129823205e-03,2.295730914764093633e-03,6.174832679175287775e-02,1.262671192531526765e-02,-1.920314495281995049e-01,-1.078240880870925955e-01,-1.254180097329621324e-02,-2.068113269829727208e-01,-8.306109072610057265e-02,-5.091038580766565902e-02,-5.536290292484732922e-02,-5.016574697240967773e-02,-9.097284436212116354e-02,5.485673311614581993e-02,-6.938893903907228378e-18,-5.204170427930421283e-18,6.938893903907228378e-18,-1.021892747090590026e-02,-4.866615588650127777e-02,-1.604854261853516650e-02,-1.432915302368780175e-01,3.275373604263309701e-02,-1.138318564966989133e-01,-1.653141826101123257e-01,-1.612983430513548200e-02,1.317092636100286596e-01,6.171053469796305979e-02,7.660995604318587837e-02,2.337225555221204010e-01,1.009213663298708097e-02,-4.961297597052653774e-02,3.330856916400282142e-02,-1.326587855886656453e-01,-8.773464424687932306e-02,3.147951401524062831e-02,6.264463757010296785e-02,9.002154751203597649e-02,3.624472170318118747e-02,1.007460902066809882e-01,9.219351009634685346e-02,-4.973216611033906553e-03,1.300332157481648432e-02,-5.204170427930421283e-18,0.000000000000000000e+00,0.000000000000000000e+00,2.081668171172168513e-17,-4.984539224732938145e-02,-1.445220139454964636e-01,5.740682776174899082e-02,-1.304405020307258800e-01,6.708284736335901055e-02,1.217520513540737426e-03,4.807261230626358461e-02,3.184750539755243359e-02,1.837880207055397896e-02,5.381683773207923682e-02,1.205300048515994538e-01,7.617751222028873448e-02,3.671162425812779517e-02,-1.752417807060306920e-01,-3.399243227605330819e-02,-9.128798425374712311e-02,-7.176248213529429210e-02,-1.298904572526364820e-01,-1.437883033710948832e-02,-1.301401602763471166e-01,-1.183956367384285530e-01,-3.025894340123139181e-02,-1.020482738279586410e-03,-1.116439082394233076e-02,0.000000000000000000e+00,0.000000000000000000e+00,0.000000000000000000e+00,6.938893903907228378e-18,4.163336342344337027e-17,7.170263775104612769e-02,1.210929435915166913e-01,-2.185139801295740147e-01,9.496773348593184894e-02,-1.039223115927954688e-01,-1.389847367505296916e-01,-9.707609360680269361e-03,-4.744907296492140159e-02,-8.079845676063357462e-02,2.892165773802131135e-01,2.811992177766620138e-03,-2.258408993608753690e-01,-4.028416399346468335e-02,1.386548675964938138e-02,6.264230299864059770e-02,7.583371544405714815e-02,8.730149845285668786e-02,-6.267639782036903140e-02,-5.884330413522908393e-02,-6.772524308780102087e-02,2.262577125634812614e-02,6.938893903907228378e-18,3.469446951953614189e-18,0.000000000000000000e+00,0.000000000000000000e+00,0.000000000000000000e+00,1.734723475976807094e-17,1.040834085586084257e-17,-6.938893903907228378e-17,2.775557561562891351e-17,0.000000000000000000e+00,0.000000000000000000e+00,-1.665334536937734811e-16,0.000000000000000000e+00,3.503950306866232545e-03,3.256945181986115045e-02,-3.081157487893571023e-02,-2.079009366645534485e-02,-2.205194363224527443e-02,-1.194311439711437384e-02,-3.013257230143651100e-02,-6.603646110577043871e-02,-2.139356308933748618e-02,-1.665334536937734811e-16,1.387778780781445676e-16,-2.775557561562891351e-17,2.775557561562891351e-17,0.000000000000000000e+00,-1.387778780781445676e-17,0.000000000000000000e+00,0.000000000000000000e+00,0.000000000000000000e+00,0.000000000000000000e+00,0.000000000000000000e+00,0.000000000000000000e+00,0.000000000000000000e+00,-6.938893903907228378e-18,-1.387778780781445676e-17,2.775557561562891351e-17,1.387778780781445676e-16,-5.551115123125782702e-17,3.330669073875469621e-16,-1.110223024625156540e-16,2.775557561562891351e-16,-1.110223024625156540e-16,0.000000000000000000e+00,-5.551115123125782702e-17,0.000000000000000000e+00,-5.551115123125782702e-17,1.110223024625156540e-16,5.551115123125782702e-17,2.775557561562891351e-17,0.000000000000000000e+00,0.000000000000000000e+00,-6.938893903907228378e-18,6.938893903907228378e-18,3.469446951953614189e-18,-5.204170427930421283e-18,0.000000000000000000e+00,0.000000000000000000e+00,0.000000000000000000e+00,0.000000000000000000e+00,0.000000000000000000e+00,0.000000000000000000e+00,0.000000000000000000e+00,1.387778780781445676e-17,-6.938893903907228378e-18,-2.081668171172168513e-17,0.000000000000000000e+00,0.000000000000000000e+00,1.387778780781445676e-17,2.775557561562891351e-17,5.551115123125782702e-17,-5.551115123125782702e-17,8.326672684688674053e-17,8.326672684688674053e-17,-2.775557561562891351e-17,8.326672684688674053e-17,0.000000000000000000e+00,-1.387778780781445676e-17,0.000000000000000000e+00,1.734723475976807094e-17,3.469446951953614189e-18,0.000000000000000000e+00,0.000000000000000000e+00,0.000000000000000000e+00,0.000000000000000000e+00,0.000000000000000000e+00
0.000000000000000000e+00,0.000000000000000000e+00,0.000000000000000000e+00,0.000000000000000000e+00,0.000000000000000000e+00,0.000000000000000000e+00,0.000000000000000000e+00,0.000000000000000000e+00,0.000000000000000000e+00,0.000000000000000000e+00,0.000000000000000000e+00,0.000000000000000000e+00,1.734723475976807094e-18,1.734723475976807094e-18,8.673617379884035472e-19,8.673617379884035472e-19,0.000000000000000000e+00,0.000000000000000000e+00,0.000000000000000000e+00,0.000000000000000000e+00,0.000000000000000000e+00,0.000000000000000000e+00,0.000000000000000000e+00,0.000000000000000000e+00,0.000000000000000000e+00,0.000000000000000000e+00,0.000000000000000000e+00,0.000000000000000000e+00,0.000000000000000000e+00,0.000000000000000000e+00,0.000000000000000000e+00,0.000000000000000000e+00,-8.673617379884035472e-19,1.734723475976807094e-18,5.204170427930421283e-18,6.938893903907228378e-18,-6.938893903907228378e-18,6.938893903907228378e-18,-6.938893903907228378e-18,2.775557561562891351e-17,-2.775557561562891351e-17,1.387778780781445676e-17,0.000000000000000000e+00,1.799194525330380379e-03,5.105546893326769198e-03,2.463687617495657900e-03,-6.938893903907228378e-18,-3.469446951953614189e-17,-1.040834085586084257e-17,-5.204170427930421283e-18,8.673617379884035472e-18,0.000000000000000000e+00,0.000000000000000000e+00,0.000000000000000000e+00,0.000000000000000000e+00,0.000000000000000000e+00,0.000000000000000000e+00,0.000000000000000000e+00,-8.673617379884035472e-19,0.000000000000000000e+00,0.000000000000000000e+00,1.040834085586084257e-17,6.938893903907228378e-18,0.000000000000000000e+00,2.775557561562891351e-17,4.163336342344337027e-17,1.387778780781445676e-17,1.387778780781445676e-16,2.775557561562891351e-17,1.387778780781445676e-16,2.775557561562891351e-17,-1.420684801320301616e-02,-5.552801871327389671e-02,-5.413926945959052217e-02,-1.395785824393575014e-02,2.775557561562891351e-17,1.387778780781445676e-17,2.775557561562891351e-17,-6.938893903907228378e-18,2.081668171172168513e-17,-3.469446951953614189e-18,-5.204170427930421283e-18,0.000000000000000000e+00,0.000000000000000000e+00,0.000000000000000000e+00,0.000000000000000000e+00,0.000000000000000000e+00,6.938893903907228378e-18,-3.469446951953614189e-18,-1.351594096858591346e-02,-7.316341408557448800e-03,-1.746306978771472451e-02,-7.998277581056992269e-02,8.461514641540088255e-02,-1.230024083286553466e-01,5.624407703173905926e-04,-7.285735495346082335e-02,1.577068513369045688e-01,-2.349593973904200855e-03,-1.598065109293998198e-01,6.150031280586188559e-02,-1.581785865600900676e-01,-1.267393638013688262e-01,-8.849580975091128621e-03,-5.919499755033671984e-02,-3.743824467077716545e-03,0.000000000000000000e+00,-1.387778780781445676e-17,2.081668171172168513e-17,0.000000000000000000e+00,8.673617379884035472e-19,0.000000000000000000e+00,0.000000000000000000e+00,-8.673617379884035472e-19,0.000000000000000000e+00,-1.040834085586084257e-17,1.387778780781445676e-17,-8.344680547328606202e-03,5.530820930394461654e-03,3.852245677466598073e-02,-1.811656721132628989e-02,-2.545205548606840895e-02,-6.185518741439799406e-02,-1.477289103904655398e-02,-8.233128239537623738e-02,2.321361106820851727e-02,-7.544445755806800102e-02,-9.316256807562783848e-02,-1.830920764109300047e-01,-2.209255675083351966e-02,-5.460218448698973825e-02,5.844546078029830977e-02,4.769912518988020378e-02,-7.197669561107697400e-02,-3.213724019524959175e-02,3.592698033599683871e-02,6.437974859731074306e-02,-6.938893903907228378e-18,1.387778780781445676e-17,0.000000000000000000e+00,0.000000000000000000e+00,0.000000000000000000e+00,0.000000000000000000e+00,1.387778780781445676e-17,-2.893043039642093084e-02,-4.495660398033251431e-02,-2.264406368348462206e-02,-6.959286598955605196e-02,1.026461179116458233e-01,-7.350340907627969655e-02,-1.674511518341986749e-02,-6.721146451368284480e-02,-1.168431145524960191e-01,-7.709909233553263741e-02,1.095323281267027715e-01,5.247955456271735653e-02,-1.162092636718169425e-01,1.389759915397525969e-03,9.225483922708688223e-02,2.507149492515978184e-02,-3.789091533318944549e-02,6.747537811632078886e-03,1.538983538816096064e-01,-1.433353380763793816e-01,-8.711692070777871111e-02,1.387778780781445676e-17,0.000000000000000000e+00,8.673617379884035472e-19,0.000000000000000000e+00,-8.673617379884035472e-19,3.469446951953614189e-18,1.387778780781445676e-17,-1.587134116341788748e-02,3.159196038248989619e-02,-3.898922997689271280e-02,-4.374110880886886848e-02,-2.228381203144371228e-02,-1.601595447559410190e-01,-1.156488030277359746e-01,-3.992895879952888805e-02,-1.324525410997587360e-01,-2.345602116702766304e-02,1.389941321142695863e-02,-1.409104028095026773e-01,-9.731156097667803540e-02,-7.345796607817411950e-02,2.476051731402728606e-02,-1.225390318168274872e-01,-7.513384534555134220e-02,-8.532235205308254244e-02,1.459962758266749872e-01,2.652694181279467711e-02,-5.068454604112576645e-02,1.595424203453821299e-04,1.387778780781445676e-17,6.938893903907228378e-18,0.000000000000000000e+00,0.000000000000000000e+00,0.000000000000000000e+00,-8.256337181483802690e-04,-2.821380998354411362e-02,2.814412774311886301e-02,-3.238692755980759896e-02,-4.765873627865120643e-02,4.306604847299333461e-03,1.130345419199061535e-02,9.318128193360453171e-02,-2.147404492877047488e-02,-1.505489656771147322e-01,-1.416407959151090579e-02,-1.856460673752742541e-02,6.617566283138508199e-02,-1.384139964538877443e-02,3.533404633627706959e-02,7.145988045965692703e-02,8.943824986395156051e-03,9.798741131616178768e-02,-1.447582006800833543e-02,6.419722774230469942e-02,1.274154467472771862e-02,-2.561757064685844104e-02,1.308724652955930989e-02,2.775557561562891351e-17,3.469446951953614189e-18,2.602085213965210642e-18,-1.387778780781445676e-17,4.163336342344337027e-17,-2.544654090952569447e-02,-5.623285239977715566e-02,-4.424580238959929801e-02,-5.009722134756283696e-03,-5.303241240785211419e-03,7.082727930015327023e-02,1.234845938086873984e-01,2.307989444630142994e-02,1.432763980383194857e-02,-2.176966330671362138e-02,-4.666934029101149628e-03,-3.166367691552152142e-02,-7.452170408292341230e-02,-5.491192923213966681e-02,-4.822598748663536883e-02,3.522099272076559262e-02,4.352935102348484686e-02,7.486147780056186252e-02,3.043311679061344588e-02,5.361379235254843528e-02,-1.529602584028711028e-02,-1.137451025412191674e-01,2.389724330236453476e-02,-5.551115123125782702e-17,1.040834085586084257e-17,0.000000000000000000e+00,1.387778780781445676e-17,2.473355965141699198e-03,-9.196567455748053121e-02,-1.142152801203666496e-01,-2.479784854894370727e-02,1.969143377687283814e-02,-5.588876880549559223e-02,-5.696102758830340340e-02,2.973222339664766123e-02,1.964590457692638736e-02,1.142617265518214853e-01,6.190142900011505467e-02,6.347144317192604523e-02,1.753440783020843163e-02,-3.158345578255217223e-02,6.031440153619593847e-02,6.311479795562091599e-02,5.813000227390321961e-02,-1.033769286367339779e-01,-9.129411753055621803e-03,-1.508659680034217521e-01,-2.710987480880658884e-01,-7.937854512723069300e-02,-2.638268106606686536e-02,2.014991761308021490e-02,-1.387778780781445676e-17,-6.938893903907228378e-18,5.204170427930421283e-18,6.938893903907228378e-18,1.279808407524483937e-02,-5.659783785789129773e-03,-1.944670209562196495e-02,-2.572653741476565309e-02,4.250474917952624249e-03,-1.911379651581607275e-02,5.111926012904138839e-02,6.600275216316786597e-03,1.499017710177879548e-01,-2.376746541302243720e-02,-2.531422943467070974e-02,3.235694549999923453e-02,1.237547297542356262e-01,2.232753621836336411e-02,2.143467828952250187e-04,7.633474444360116573e-02,6.132827516835576143e-02,5.682035297680693153e-02,1.102938563539589689e-01,4.660112136702217189e-02,4.839429234973606497e-02,-1.045464394894679572e-01,-2.810263209352040215e-02,1.309898294298915411e-02,1.387778780781445676e-17,-6.938893903907228378e-18,5.204170427930421283e-18,3.469446951953614189e-18,1.387778780781445676e-17,-1.510535547281338375e-01,-6.833269875351963285e-02,2.518860562644970047e-03,1.309631960773562365e-01,-1.541217184619128600e-02,-5.452674831102327646e-02,8.735697636536604582e-02,8.078686616632732576e-02,7.481305751306396856e-02,7.200133372205486104e-03,-1.431788567468729179e-01,-2.872677359224695692e-02,-1.395437838692176746e-01,-8.586102621250690792e-02,-1.428258468082623245e-01,-4.190203185738411440e-02,-5.767905807200768287e-04,1.891567379272143801e-01,1.469653518567232975e-01,1.871948128918155263e-01,4.604424895584142974e-02,6.932482372653428482e-02,9.714451465470119729e-17,0.000000000000000000e+00,-6.938893903907228378e-18,8.673617379884035472e-19,1.734723475976807094e-17,1.387778780781445676e-17,-7.649841124210618459e-02,5.145376449949867759e-02,-1.322761249758389046e-02,1.522777928755369992e-01,-3.185718042642671222e-03,4.382865548097139574e-02,7.238912843484185400e-02,-5.302937285620321073e-02,4.157953885021697937e-02,8.520242817799950075e-05,-1.169129767801761477e-01,-1.222223205904189869e-01,-2.030649676215439958e-01,-1.314482103579067696e-01,-9.202563561695242811e-02,8.953926666375672250e-02,-9.778004161317976894e-02,-5.019801095797671309e-02,7.948721352270049501e-02,1.221184855324589646e-01,2.185609853103237521e-01,9.448053623902460951e-02,4.163336342344337027e-17,-6.938893903907228378e-18,0.000000000000000000e+00,-8.673617379884035472e-19,-3.469446951953614189e-18,2.081668171172168513e-17,-3.840737405413227612e-03,1.332145977151152072e-01,-5.891629800721442933e-02,1.080012584836701761e-01,7.650687445963902378e-02,1.282752169897018735e-01,4.914831436971751899e-02,8.470065118347454292e-02,1.423074029819118846e-01,2.253059834546933260e-03,-6.702785082059924127e-02,-1.204274582603012678e-01,-2.495543868214898930e-01,-3.722675838092159850e-02,-5.587448522400077777e-02,-3.343497851957127898e-02,7.952710927780515249e-02,-5.095635996134306733e-02,1.193927286109269237e-01,6.798000499145551156e-02,1.207938723300921446e-01,8.029865068771566139e-02,4.163336342344337027e-17,-2.081668171172168513e-17,3.469446951953614189e-18,0.000000000000000000e+00,3.469446951953614189e-18,-3.469446951953614189e-18,2.942296695207680807e-02,-9.029244617764342618e-02,-5.871314842877800588e-02,4.194015057566061189e-02,6.509501217384371097e-02,1.450735808585847941e-01,-7.731677340438357360e-03,1.029203184405567961e-01,9.569181165861406768e-02,7.293647490710454540e-02,-8.659473780373855289e-02,-2.359170863039922184e-01,-1.975485015326217120e-01,-3.919943205177722767e-02,-1.267657497483560269e-01,-1.442802138850707294e-02,9.605891841463820580e-02,5.156649318354689093e-03,1.093939475896670843e-01,5.053416379086510257e-02,8.359932310180218096e-02,8.019381507681425103e-02,4.163336342344337027e-17,1.387778780781445676e-17,0.000000000000000000e+00,0.000000000000000000e+00,0.000000000000000000e+00,0.000000000000000000e+00,2.499023427713750051e-02,-4.106000802496989621e-02,8.051012863532275299e-02,8.910151715305181241e-03,6.141565739399831858e-02,5.538735995459398431e-03,9.548857659481757576e-02,1.476343294232221048e-01,1.795266341395109766e-01,3.438392677267626540e-02,-2.607654692390920514e-01,-1.352454501243389728e-01,-3.005346256705276886e-02,-2.791084038377444898e-02,6.772357925609662210e-02,7.410398536040363471e-02,-4.663021703648717597e-02,1.088023022846711374e-01,4.896981095443553311e-02,-7.106954740336561549e-02,2.803088256196751421e-02,-1.548602564132500747e-03,0.000000000000000000e+00,-6.938893903907228378e-18,1.734723475976807094e-18,0.000000000000000000e+00,3.469446951953614189e-18,-6.938893903907228378e-18,-8.886179008716657557e-02,3.025051908541459555e-02,-2.891908015140481902e-02,3.432762790162241506e-02,6.520020097606527010e-02,-5.533627750818043145e-02,6.342020554322047587e-02,-8.598032738086902604e-02,1.837611490466617981e-01,9.606893918087572315e-02,-1.313485434876305868e-01,-2.101287539845875241e-01,8.174004846921101297e-03,3.606873613496996978e-02,5.749265329589497986e-02,-3.211214590140465397e-02,-3.571603433769454661e-02,1.274442852958002081e-02,1.093205057245907885e-01,-3.753605271645260588e-02,-5.900350217623040461e-02,-8.412066251047958798e-02,0.000000000000000000e+00,6.938893903907228378e-18,2.024157150627044210e-04,0.000000000000000000e+00,5.204170427930421283e-18,1.387778780781445676e-17,-7.686352255535712497e-02,5.439910567662872842e-02,2.357799510538471921e-02,2.977250614033422060e-03,-3.007171489132154374e-02,6.972965415478982187e-03,2.323680665423825120e-01,1.213800527952167557e-01,-5.661668786919078419e-03,2.552187715268827706e-02,-1.149499948713318398e-01,-2.897410679337042438e-02,1.185182089468239663e-01,-2.143582475348365657e-02,-4.485614481372772466e-02,-5.687841298232820808e-02,-8.658228444612725561e-02,-1.103996474657009674e-02,-2.905493125451819036e-02,2.198718747434524889e-02,-4.456772024017256750e-02,-5.220428455550861491e-02,2.775557561562891351e-17,-3.469446951953614189e-17,2.351822312120041558e-03,-3.469446951953614189e-18,1.040834085586084257e-17,1.387778780781445676e-17,-7.711563292486073307e-02,1.118418570017389035e-01,-2.616177681323222926e-02,9.131933081835685861e-04,1.167710009944870064e-01,4.981631750805182168e-02,1.142951115882028801e-01,-7.427650227531604199e-02,-4.243456868981171359e-03,1.902379030105649793e-03,-1.914378505964805521e-01,-6.332009561399698505e-02,-7.762358217552911555e-02,-9.875244315438320986e-02,2.965915070948810933e-02,-1.304554944197340860e-01,1.453296705273049438e-02,-1.365312169488315241e-01,-6.324547379965633764e-02,-2.974902866555409475e-02,2.152939741942646451e-02,2.362035301328969938e-02,0.000000000000000000e+00,0.000000000000000000e+00,-1.734723475976807094e-18,0.000000000000000000e+00,1.734723475976807094e-18,6.938893903907228378e-18,-1.956732659332525298e-02,-7.768335153286956563e-02,-7.283267150785255328e-03,1.851216997856786062e-03,6.270523532845351244e-02,8.420971322019221716e-02,1.598572844529189130e-02,-2.704046170683621630e-02,4.268116040680232370e-02,1.321105063054452411e-01,9.936554541827746778e-02,8.125619452368393336e-03,-1.465554685792419543e-02,-1.655019492483096599e-02,-9.445749309335826904e-02,-3.490652614806705190e-02,-1.296531644230575209e-02,-1.490373072180669889e-01,-6.605324940978188342e-02,-3.312225537403328673e-03,3.783685319931266722e-02,1.190610208362985478e-02,5.551115123125782702e-17,0.000000000000000000e+00,0.000000000000000000e+00,0.000000000000000000e+00,1.734723475976807094e-18,1.387778780781445676e-17,-4.634276097691586438e-02,-1.368551284925294820e-01,8.899871468386860718e-02,-2.059886018303555555e-02,7.104409742109130121e-04,-8.357302076945294367e-02,-6.389378382832661130e-02,2.243592062260851838e-02,1.181157777454624747e-01,1.118063642469398489e-01,2.458826585019110306e-02,-5.758768333457379984e-02,7.022491708765957186e-02,-7.645771766939518654e-02,-5.055643077038846078e-02,-4.643904707020929390e-02,3.643576119489788656e-02,2.004178141247447975e-02,-6.263593991054637253e-03,3.795733284543910402e-02,-9.875286692163817714e-02,5.691190637571244548e-03,1.387778780781445676e-17,-6.938893903907228378e-18,8.673617379884035472e-19,-8.673617379884035472e-19,1.734723475976807094e-18,-1.387778780781445676e-17,2.240265124513708683e-02,-3.844974197659958848e-02,3.417021062565755996e-02,-1.247751174196228829e-01,8.763629658341598461e-03,-1.198357247060660713e-02,1.919500070416413351e-03,4.597345403125663310e-02,5.130212089241809048e-02,3.079705388035336444e-02,8.783523376176616271e-02,3.263171580029888830e-02,-1.178196803946812699e-01,1.004206203777174289e-01,-9.455397006076385336e-02,-3.805714694500950124e-02,-2.701039985785476383e-02,3.565598643826266290e-02,2.396474584385407947e-02,-1.318535942780237058e-02,-2.686827585539226793e-02,1.433294374973295704e-02,0.000000000000000000e+00,1.387778780781445676e-17,0.000000000000000000e+00,8.673617379884035472e-19,1.734723475976807094e-18,6.938893903907228378e-18,-4.745984396849124709e-02,6.919700130427072771e-03,-2.566851620580268278e-02,-1.724577639011593000e-02,-1.256089066561196788e-01,1.686682445988074708e-03,-4.024898330208653841e-02,9.552964855497170227e-03,-1.229799553953192515e-02,1.953851240522255228e-01,1.648575412908674931e-01,3.774098892226596114e-02,-7.120982298798683718e-02,-5.591891899521866938e-02,-5.769011316500771702e-02,2.027769949524779736e-02,-1.302883862910431123e-02,6.183715659419469768e-03,7.349247977014472522e-03,7.084338901360773266e-03,-3.418621219179948656e-03,9.426396011154872245e-03,1.387778780781445676e-17,1.040834085586084257e-17,2.602085213965210642e-18,0.000000000000000000e+00,0.000000000000000000e+00,0.000000000000000000e+00,-3.555289108608070819e-02,-4.794457212521086031e-02,2.983191465996787306e-02,4.445986104483740098e-02,-4.388572228685433396e-02,-5.303362861146396212e-02,-4.680524172397947102e-02,-3.759821369944907343e-02,1.125145057109063207e-01,1.191623776388068823e-01,6.009708186850268308e-02,1.301857264825654614e-01,1.484812558578833541e-01,-6.771678623283430842e-02,-4.966240060706370030e-02,-5.319372613972545016e-02,-4.233020929931907705e-02,-4.883580355464181566e-02,-1.824926066621189447e-02,-8.655427077099320243e-03,9.336689068818890269e-03,2.567309335587963925e-04,6.938893903907228378e-18,0.000000000000000000e+00,0.000000000000000000e+00,0.000000000000000000e+00,0.000000000000000000e+00,6.938893903907228378e-18,6.938893903907228378e-18,6.699114304125509956e-02,-8.246546613375899115e-02,-1.850423042293414255e-01,-4.785834036821956516e-02,-5.045906910470548956e-03,7.664141598101377635e-03,-5.779497373095605905e-02,-9.781903988983312037e-02,2.255822693143749724e-02,1.423859819446403885e-01,1.334378190309968293e-01,-1.150159747089304352e-01,-8.156900210202283619e-02,-4.981804968988085003e-02,-4.659802793208100979e-02,-1.006127569535658628e-02,3.800625726395816251e-02,1.029949688618052306e-02,-5.425379867675897416e-03,0.000000000000000000e+00,-6.938893903907228378e-18,3.469446951953614189e-18,0.000000000000000000e+00,0.000000000000000000e+00,0.000000000000000000e+00,0.000000000000000000e+00,5.204170427930421283e-18,0.000000000000000000e+00,0.000000000000000000e+00,0.000000000000000000e+00,1.306628512430575706e-02,-1.767882708030542316e-02,-4.419599896636242087e-02,-5.681472113368568611e-02,-1.066515888053194416e-01,-7.263385813100525779e-02,-9.994887228536042389e-02,-7.003713598692029585e-02,-3.460602929861034127e-02,2.098069125500146015e-05,1.580163031864240120e-02,1.020811827324324961e-02,-6.471297898248379310e-03,-2.572435148794849358e-03,5.551115123125782702e-17,4.163336342344337027e-17,-4.163336342344337027e-17,2.775557561562891351e-17,-1.040834085586084257e-17,-3.469446951953614189e-18,1.734723475976807094e-18,0.000000000000000000e+00,0.000000000000000000e+00,0.000000000000000000e+00,0.000000000000000000e+00,0.000000000000000000e+00,1.387778780781445676e-17,-6.938893903907228378e-18,-1.387778780781445676e-17,2.775557561562891351e-17,1.387778780781445676e-16,8.326672684688674053e-17,5.551115123125782702e-17,-1.665334536937734811e-16,1.665334536937734811e-16,-1.665334536937734811e-16,1.110223024625156540e-16,-1.892762250313206884e-03,-1.901733538558253445e-02,-3.485146058421620396e-02,-2.394661508357345814e-02,-1.062559394515869005e-03,6.938893903907228378e-17,2.081668171172168513e-17,1.387778780781445676e-17,6.938893903907228378e-18,1.734723475976807094e-18,8.673617379884035472e-19,0.000000000000000000e+00,0.000000000000000000e+00,0.000000000000000000e+00,0.000000000000000000e+00,0.000000000000000000e+00,0.000000000000000000e+00,0.000000000000000000e+00,1.734723475976807094e-18,1.387778780781445676e-17,6.938893903907228378e-18,-1.387778780781445676e-17,3.469446951953614189e-17,-2.775557561562891351e-17,2.775557561562891351e-17,-1.387778780781445676e-17,4.163336342344337027e-17,-2.775557561562891351e-17,4.163336342344337027e-17,2.775557561562891351e-17,5.551115123125782702e-17,-6.938893903907228378e-18,0.000000000000000000e+00,1.040834085586084257e-17,6.938893903907228378e-18,1.734723475976807094e-18,-1.734723475976807094e-18,0.000000000000000000e+00,0.000000000000000000e+00,0.000000000000000000e+00,0.000000000000000000e+00
0.000000000000000000e+00,0.000000000000000000e+00,0.000000000000000000e+00,0.000000000000000000e+00,0.000000000000000000e+00,0.000000000000000000e+00,0.000000000000000000e+00,0.000000000000000000e+00,0.000000000000000000e+00,0.000000000000000000e+00,0.000000000000000000e+00,0.000000000000000000e+00,-4.336808689942017736e-19,0.000000000000000000e+00,-4.336808689942017736e-19,-4.336808689942017736e-19,0.000000000000000000e+00,0.000000000000000000e+00,0.000000000000000000e+00,0.000000000000000000e+00,0.000000000000000000e+00,0.000000000000000000e+00,0.000000000000000000e+00,0.000000000000000000e+00,0.000000000000000000e+00,0.000000000000000000e+00,0.000000000000000000e+00,0.000000000000000000e+00,0.000000000000000000e+00,0.000000000000000000e+00,0.000000000000000000e+00,0.000000000000000000e+00,0.000000000000000000e+00,-1.301042606982605321e-18,-1.301042606982605321e-18,-8.673617379884035472e-19,-5.204170427930421283e-18,-1.734723475976807094e-18,3.469446951953614189e-18,0.000000000000000000e+00,3.469446951953614189e-18,-1.734723475976807094e-18,-3.469446951953614189e-18,1.771582460723855265e-02,5.027192558269932832e-02,2.425877641583219779e-02,0.000000000000000000e+00,-1.734723475976807094e-18,-8.673617379884035472e-19,8.673617379884035472e-19,1.301042606982605321e-18,4.336808689942017736e-19,0.000000000000000000e+00,0.000000000000000000e+00,0.000000000000000000e+00,0.000000000000000000e+00,0.000000000000000000e+00,0.000000000000000000e+00,0.000000000000000000e+00,2.046210128531656368e-03,1.090407863948775202e-04,-8.673617379884035472e-19,3.469446951953614189e-18,-3.469446951953614189e-18,3.469446951953614189e-18,1.387778780781445676e-17,-6.938893903907228378e-18,-6.938893903907228378e-18,-2.081668171172168513e-17,-7.734724064542779220e-03,-4.498741331310138897e-02,-4.080095233945055938e-02,1.889633048767720702e-03,8.845163005597594941e-05,0.000000000000000000e+00,2.081668171172168513e-17,2.081668171172168513e-17,-1.734723475976807094e-17,6.938893903907228378e-18,0.000000000000000000e+00,1.734723475976807094e-18,4.336808689942017736e-19,0.000000000000000000e+00,0.000000000000000000e+00,0.000000000000000000e+00,0.000000000000000000e+00,-4.336808689942017736e-19,1.597910988912441864e-03,2.458602913767236192e-04,-5.204170427930421283e-18,1.734723475976807094e-18,-1.040834085586084257e-17,6.938893903907228378e-18,9.188823787149576899e-03,2.629390421347559820e-03,4.022970748172757099e-02,4.860157706419355322e-02,1.852945436308474358e-02,-8.245880981742496896e-03,1.023833524479210444e-02,1.778566868926870215e-02,1.684197755816799202e-02,3.519822937799552132e-03,-2.009423893009451567e-02,-5.151275619130327166e-02,-2.232041412285154861e-02,-7.465864914710691747e-04,3.407320059507189247e-04,-2.259159507259361419e-03,8.673617379884035472e-19,-4.336808689942017736e-19,0.000000000000000000e+00,0.000000000000000000e+00,0.000000000000000000e+00,-1.301042606982605321e-18,-1.734723475976807094e-18,-1.734723475976807094e-18,-5.191558652484143735e-03,-3.047820593886207269e-03,-4.164769157647398717e-02,-2.601217009608979697e-02,6.994462535841503015e-03,-3.110492520882288114e-02,5.537289497006427780e-02,3.819915917259857074e-02,-1.393205076346412837e-02,-6.214527653498516657e-02,-2.398733951243736673e-03,1.396582133652203572e-02,1.419001686595466882e-02,-1.215715624533984796e-02,-1.639514561188396002e-03,1.642284461826066036e-02,2.265394685620378268e-02,-1.150548945424878164e-02,1.127343996405981430e-04,-3.233599545190049551e-03,-1.284642873015618379e-02,0.000000000000000000e+00,0.000000000000000000e+00,0.000000000000000000e+00,0.000000000000000000e+00,8.673617379884035472e-19,0.000000000000000000e+00,-3.469446951953614189e-18,3.245358500531779489e-03,1.407199445116532471e-02,-2.815916769068790848e-02,-3.441553454820366065e-02,-2.487719208088162715e-02,-1.612414726820626115e-02,-1.889724979354815565e-02,9.096857710980246758e-03,-2.249904985211356734e-02,-1.698981633474441755e-02,6.421586425230013662e-02,5.805136443556981052e-02,6.048231956261534981e-02,3.477709922318376196e-02,1.506228595328050479e-02,-2.795135859577369680e-02,-3.458218263161315364e-02,-2.890663065572759982e-02,-7.679358969106622745e-02,-9.163345690927200693e-03,1.648894078642689637e-02,0.000000000000000000e+00,-4.336808689942017736e-19,0.000000000000000000e+00,0.000000000000000000e+00,1.734723475976807094e-18,0.000000000000000000e+00,-1.708034214379875598e-03,1.515992898889133300e-02,2.171123556156603907e-02,-9.710084686705006130e-04,-2.784529893518052079e-02,-4.022608019554685388e-02,-1.649084399671228718e-02,4.242082189426524264e-02,-1.135313958720475525e-02,1.414648995832359923e-02,-7.310843857945115154e-03,1.729033394668649803e-03,3.350212476667610573e-02,2.886039445383138669e-02,-1.736541143941383591e-02,-1.807767357339570835e-02,-2.491693932164215641e-02,-1.713380788671112903e-02,7.471676871380200646e-03,4.381314623975993833e-02,-2.692786444229186213e-02,-8.813467942407020653e-03,0.000000000000000000e+00,-8.673617379884035472e-19,0.000000000000000000e+00,8.673617379884035472e-19,-1.734723475976807094e-18,-2.145073691412459349e-03,-4.897726963876976314e-03,-5.510283346563289719e-03,-3.694785685159907018e-05,-2.717176412972036048e-02,-1.569031222560944572e-02,2.075058561051612571e-03,-3.043305283155942065e-02,-2.144709180423426398e-02,2.457778397861578451e-02,9.801101961882802138e-03,2.442764509134051631e-02,5.874551492750418324e-02,4.608127129449945958e-02,-8.746280788511640036e-05,-3.389547691217877079e-02,-2.124026296481386356e-02,-1.774783800272342754e-02,2.832656374248082934e-02,4.205784132132459746e-02,4.038688922941972848e-02,-1.360685322987593635e-02,2.457374925223044029e-02,0.000000000000000000e+00,-2.602085213965210642e-18,9.186416059140920659e-03,0.000000000000000000e+00,-5.524285774989770581e-03,-5.242868058181637814e-03,-8.350318758897225246e-03,1.055662515117382350e-02,-1.161952308066127593e-02,-1.826992340865916942e-02,4.202652764531836227e-02,4.874887026830330289e-02,1.426920354123769469e-02,-2.970233748584066510e-02,3.914892298430144857e-03,3.249662114406205726e-02,5.417156993831150069e-02,5.414016675281659724e-02,1.619836412583326724e-02,5.836812184330082698e-02,7.616146887694406897e-02,1.518906261527105950e-02,1.249147098180597437e-02,1.351757623654143564e-02,6.623782999603844424e-02,-4.219988500074510485e-02,-2.631655614515635705e-02,2.220983213441225790e-03,3.469446951953614189e-18,0.000000000000000000e+00,4.336808689942017736e-19,-5.204170427930421283e-18,6.599925253649328513e-03,-4.773021828510352893e-03,-6.473028897413413141e-03,2.949586365500733720e-02,4.762661712315867379e-02,4.766390532510193095e-02,3.808754587095002780e-02,2.308992588700158749e-02,2.763690394004219425e-02,-1.108581069894909107e-02,2.181653764426972134e-02,2.014911874618404569e-02,1.394224467201025247e-02,4.885294965667111300e-02,5.174907487225911817e-02,5.362205874283785395e-02,8.890749967005785737e-02,4.133736339465472059e-02,8.662693346451980081e-02,-7.528554686542426877e-03,1.376119742359946385e-03,-5.130258507133389489e-02,-1.338039969835117318e-02,-3.245777496881790958e-05,-3.469446951953614189e-18,0.000000000000000000e+00,-1.301042606982605321e-18,1.734723475976807094e-18,5.508484252299918060e-02,1.961257691490927296e-02,6.701991761089709509e-03,1.604364149985097743e-02,5.923055032565553019e-02,1.664963188335752062e-02,2.870755541574426112e-02,3.901439704649002638e-02,3.145139858403298017e-02,-1.452363130383380052e-02,8.846469684857173610e-03,1.867027673733553939e-02,4.936888760241277957e-02,4.366116706413329662e-02,5.952830852512586146e-02,2.961369290678665320e-02,7.709490924942967449e-02,6.561787866688736925e-02,1.045013123708264241e-01,-1.928242407362973365e-03,4.840757683642205045e-02,-4.408823171869330482e-03,-1.767674702203395759e-02,-5.305493340591883183e-02,-6.938893903907228378e-18,3.469446951953614189e-18,4.336808689942017736e-19,3.469446951953614189e-18,-5.572428068724316966e-03,-8.753605769504159417e-03,-1.054341870657459629e-02,-3.458455271111673945e-02,8.689154570863916183e-03,-1.752607958782388675e-02,3.286791857422476093e-02,1.049301236004986093e-02,4.953272598978014640e-05,-2.468904415530577545e-02,-1.973294533125094508e-02,2.036418752666563359e-02,3.100007158563367060e-02,6.393697822281023402e-02,4.409240118681956311e-02,3.131318448438961954e-02,-1.316236517146562174e-02,-1.212556896993069455e-02,2.882107134121206227e-02,6.724829123125442010e-03,7.307452760211956277e-02,9.407973315914092138e-02,6.722412744453237776e-02,-1.841933893370763242e-02,-3.469446951953614189e-18,8.673617379884035472e-19,-4.336808689942017736e-19,-8.673617379884035472e-19,-7.168498424690212395e-03,3.148548706243327333e-02,2.267539593752821575e-02,-5.970672174549319922e-02,8.042573364926364210e-03,-1.061258302133975817e-02,-2.701002757722717473e-02,1.125192333196570887e-02,-1.726472561847305909e-02,-5.351720980902224811e-03,-7.935475325878821318e-03,-1.319685863580626062e-02,-3.290783253154254406e-02,-8.991783267555703008e-03,-2.134771855194986245e-02,-9.269184033644489729e-03,1.608611173405088968e-02,-4.175878139918468013e-02,3.653606298187817014e-02,6.273461717978101593e-03,6.659975683163829596e-02,9.369898828900344312e-02,5.033825142780504192e-02,-2.832341940219551546e-02,1.734723475976807094e-18,-8.673617379884035472e-19,0.000000000000000000e+00,-1.301042606982605321e-18,-3.360171256167909272e-03,1.111121971358271926e-02,6.407101192303030213e-02,-8.500141018937784620e-03,-2.409159759538026524e-02,-6.174190316985450622e-02,-6.871746177520773879e-02,-1.084709651326726254e-02,-3.829719445178195181e-03,-1.033149491593113312e-02,-9.647166154371285274e-03,-1.624508401372064259e-02,-5.750518847665020417e-02,-6.446231808830388266e-02,-8.975579487260698652e-02,-2.922744470047221321e-02,2.281125323922528203e-02,-3.784844643191848101e-02,2.649692579664278402e-02,3.446628897247427936e-02,2.145101513664307569e-02,2.916215892206502902e-03,-4.382963226286823444e-02,-2.550358739296368360e-02,-1.734723475976807094e-18,1.734723475976807094e-18,0.000000000000000000e+00,-4.336808689942017736e-19,-1.734723475976807094e-18,-4.260410463813191911e-03,-1.015650348784754298e-01,2.895327579464535006e-03,-1.290621323488619354e-02,-3.747986096394248512e-02,-7.452569804474824811e-02,-5.422805412648104562e-02,-6.350261982500521318e-03,-3.534869581801029781e-02,1.556716819654055395e-02,-1.870678686942620073e-02,-9.761769468037648223e-02,-1.115735797142612395e-01,-1.729677188957274292e-01,-7.367861707322692633e-02,2.900990336995096230e-02,-2.689694367124237373e-02,3.037381172422162767e-02,6.461770094367749739e-02,5.018008813314500660e-02,-5.695503217417741126e-03,6.309144421577558837e-02,2.384743944541412031e-03,1.734723475976807094e-18,8.673617379884035472e-19,0.000000000000000000e+00,0.000000000000000000e+00,-8.673617379884035472e-19,3.469446951953614189e-18,-5.162705794096725254e-02,2.165445620705888641e-02,-1.993786278475553897e-02,7.220464976820134551e-03,-7.815697257686393673e-02,-5.174034605614374893e-02,-5.897892415071218086e-02,-1.504050782174116627e-02,1.111169811993645284e-02,-1.095563056898276877e-01,-1.444350654206554563e-01,-1.319073116379662902e-01,-1.170803739636187418e-01,-5.562041134306211498e-02,1.921113327575318941e-02,3.503080899906221846e-02,1.921851921858969137e-02,4.411268165697670995e-02,-2.855161470964068249e-03,8.649546749029513037e-03,2.367912536918403976e-02,1.793225427900380087e-02,-1.734723475976807094e-18,1.734723475976807094e-18,0.000000000000000000e+00,-4.336808689942017736e-19,1.734723475976807094e-18,-3.469446951953614189e-18,4.508409591820028428e-03,-5.582284771986634198e-03,-9.968748315525549630e-03,9.917237921103216891e-03,3.562609703689212370e-03,-2.752174722811007168e-02,-1.816681189419103171e-02,2.647677661745487937e-02,-3.283763121861407730e-02,-1.399452543552232031e-01,-9.650829501440913449e-02,-7.677950308383738043e-02,-8.505933715901101144e-02,-7.286304110335711792e-02,-1.308316904388340252e-02,3.156970201853764868e-03,-2.930045707539116751e-03,-1.371433222048275280e-02,1.325409058136844953e-02,6.451649786501062467e-03,6.190308618352038939e-02,-1.410833967879314421e-02,5.204170427930421283e-18,2.376109702127718760e-03,0.000000000000000000e+00,-4.336808689942017736e-19,1.734723475976807094e-18,-1.439932010134512691e-02,2.868724180381987399e-02,6.277776821916991601e-03,-3.172221846643216714e-02,7.100846894930762376e-03,4.730662913903005418e-03,4.348173471601712858e-03,3.904370562380526932e-02,2.336756080090576781e-02,-1.432156865105940757e-02,-7.195324594027399656e-02,-3.778010376978742368e-02,-2.515390380974204948e-02,-1.196701133484115442e-02,-3.331101400646596655e-02,-6.886979028354842103e-02,6.881296318806462420e-03,-2.205607913204144649e-02,3.112443542122415863e-03,4.392829194703130880e-02,-9.946988364557332596e-03,1.918683470719549644e-02,2.124462292682602338e-02,0.000000000000000000e+00,2.760748004065913946e-02,4.336808689942017736e-19,-8.673617379884035472e-19,-6.938893903907228378e-18,-3.336931064672100239e-02,5.067757252263563328e-03,-4.404228962613289389e-02,-5.396852261743877166e-02,-1.665266553210445477e-02,3.908776721842724400e-02,1.947384881669511625e-02,1.444936584605932550e-02,-4.364220321063516650e-02,-4.915811276577106148e-02,-6.819458281925597221e-02,-8.769613577427666506e-02,-6.306533835374490693e-02,-1.571310059565531048e-02,-7.492963949753822517e-04,-5.688593959048694054e-02,-2.442386353739510463e-02,-2.717945182437443707e-02,-1.762306012159943133e-02,2.270420017432316084e-02,1.836036800275217540e-02,-5.208960812602121682e-02,-2.863215838410294520e-02,-3.469446951953614189e-18,-1.301042606982605321e-18,0.000000000000000000e+00,-4.336808689942017736e-19,-3.469446951953614189e-18,-7.775318094017594217e-02,7.352478437736423289e-02,-4.498325781811063004e-03,-1.520788320078206995e-02,3.805849266571745271e-02,4.222514685515173227e-02,1.237264654400282993e-02,1.978346004767594923e-04,-2.304649077703810334e-02,1.349691995649743292e-02,-2.509099097856534732e-02,-7.618131595292039482e-02,-2.654378110922887835e-02,-2.563409692870296727e-02,1.607689161194123667e-02,-3.034179171536422609e-02,-1.856306950286928242e-02,1.816332196257527953e-03,-1.094965298048001905e-02,-1.072311194268668263e-02,1.717998725897342677e-02,-1.780971326674737204e-02,-1.814924231345477201e-02,0.000000000000000000e+00,-4.336808689942017736e-19,0.000000000000000000e+00,-1.301042606982605321e-18,6.938893903907228378e-18,-1.926593823076824807e-02,2.883975805929144334e-02,1.636043694064737153e-02,3.987470249218628277e-04,4.381705295429684510e-02,6.804805975917788130e-04,2.546518891158650044e-02,9.174008664609108188e-02,1.060311562807147723e-01,9.574201804071331978e-02,2.911051936955240740e-02,-4.995118075445452444e-02,-1.145538070641043821e-02,-2.218437128714087492e-02,-1.482719074721598751e-02,2.608059554684691306e-02,2.652573511254405214e-03,-2.947924735883912517e-02,-9.471303829503754240e-03,-1.811540174323524044e-02,2.491822097694364191e-03,3.323948859247976770e-04,-6.938893903907228378e-18,3.469446951953614189e-18,-4.336808689942017736e-19,0.000000000000000000e+00,0.000000000000000000e+00,3.469446951953614189e-18,5.213135207019062300e-03,-1.203637171454343541e-02,1.512923142757581496e-02,3.802985390548689615e-02,1.049415394786976374e-01,1.992852474671736457e-02,4.353468364859915118e-02,9.914192365249692440e-02,1.003672141940928214e-01,1.120812400786097424e-01,7.426266000472345197e-02,2.562000103476863577e-02,2.927271169077644286e-02,1.483401298507763810e-02,1.222328671907746411e-03,-1.495366109916586306e-02,-4.621912557111969994e-02,-1.742546231660823536e-02,-3.180933858235093781e-02,-2.881167533759346200e-02,-6.845979457994538428e-03,3.918289033484199935e-03,1.040834085586084257e-17,7.018843874944361017e-02,0.000000000000000000e+00,-4.336808689942017736e-19,0.000000000000000000e+00,6.938893903907228378e-18,0.000000000000000000e+00,8.339878634045852501e-04,8.953095957333859212e-03,5.796496470854251015e-02,5.715125014985558694e-02,6.109604384837058477e-02,4.797716729335568808e-02,4.170583289801066407e-02,6.200384034335873484e-02,5.906774166847622576e-02,9.682212097444084509e-02,7.460471729572801247e-02,3.691140914355336977e-02,1.289805831309231987e-02,6.229343723258340404e-03,-1.562424221705712574e-02,-1.552059170667440674e-02,-2.939790045692287912e-03,-5.996185673553167117e-02,-3.560395699739774683e-02,1.785497866610715259e-02,1.385408475601340901e-02,-6.938893903907228378e-18,1.294384987757752487e-02,0.000000000000000000e+00,0.000000000000000000e+00,0.000000000000000000e+00,-5.204170427930421283e-18,0.000000000000000000e+00,1.261711139603334531e-03,1.677587857904130897e-02,3.747998724278017724e-02,7.328766953988694044e-03,2.179525440119747803e-03,4.559117674857997293e-02,8.481750688030240126e-03,2.683742732507413131e-02,4.122481262432722837e-02,5.014993525731648027e-02,-1.662566345722121808e-03,-7.153912914414445323e-03,-4.966143997960419110e-02,-1.691330590011880242e-02,-1.370188641425529666e-02,1.050516340827999107e-03,-5.899148816720931054e-02,-8.882996935956978535e-02,-2.688252274203617107e-02,7.803239290647003001e-03,3.773204636008282986e-04,3.469446951953614189e-18,-8.673617379884035472e-19,0.000000000000000000e+00,0.000000000000000000e+00,0.000000000000000000e+00,0.000000000000000000e+00,-1.734723475976807094e-18,2.372223844726070036e-03,3.751496799242998170e-03,1.803114258680047974e-02,-1.588002891764849281e-03,-6.125707368580252110e-02,-9.661530466907657100e-02,-2.687144378380362797e-02,-2.308588144408463272e-02,-1.634069565872461882e-03,-1.096965336140079406e-03,1.620369929195000780e-02,2.789866544644283020e-02,1.311919020166224525e-03,2.264745384623371993e-02,-1.860518975613895815e-02,1.004427271188879783e-02,2.914407704330629345e-02,9.163969297628846156e-05,-3.586737895916961710e-03,-1.075659778582767345e-03,0.000000000000000000e+00,-8.673617379884035472e-19,-4.336808689942017736e-19,0.000000000000000000e+00,0.000000000000000000e+00,0.000000000000000000e+00,0.000000000000000000e+00,-8.673617379884035472e-19,-6.489473176377658949e-03,-1.276940791710260044e-02,-4.145321647095329132e-03,-1.315272940860090500e-03,-2.704465241853373780e-03,-5.493383736364686881e-02,-6.410923024002987414e-02,-1.850551703349968130e-02,-4.327316827192750903e-02,-3.671954398238201633e-02,-1.635642575765075546e-02,-2.722294770052777202e-02,-1.328975509383138742e-02,-4.162495122376611012e-03,-4.553509737400845969e-03,-3.984458086442876912e-04,0.000000000000000000e+00,1.040834085586084257e-17,3.469446951953614189e-18,3.469446951953614189e-18,0.000000000000000000e+00,-4.336808689942017736e-19,0.000000000000000000e+00,0.000000000000000000e+00,0.000000000000000000e+00,0.000000000000000000e+00,0.000000000000000000e+00,0.000000000000000000e+00,-1.406171487551403920e-02,-2.628777612420582499e-02,-1.269738978458619105e-02,-1.756833690947621346e-03,1.387778780781445676e-17,0.000000000000000000e+00,-6.822369557790863848e-03,-1.321874320051356910e-02,-6.667606944524825940e-03,-1.387778780781445676e-17,0.000000000000000000e+00,-2.775557561562891351e-17,-2.775557561562891351e-17,0.000000000000000000e+00,-6.938893903907228378e-18,0.000000000000000000e+00,-6.938893903907228378e-18,1.734723475976807094e-18,-3.469446951953614189e-18,-8.673617379884035472e-19,-1.734723475976807094e-18,-4.336808689942017736e-19,0.000000000000000000e+00,0.000000000000000000e+00,0.000000000000000000e+00,0.000000000000000000e+00,0.000000000000000000e+00,0.000000000000000000e+00,0.000000000000000000e+00,0.000000000000000000e+00,-3.469446951953614189e-18,-5.204170427930421283e-18,-1.734723475976807094e-18,3.469446951953614189e-18,-3.469446951953614189e-18,0.000000000000000000e+00,-3.469446951953614189e-18,-6.938893903907228378e-18,-3.469446951953614189e-18,0.000000000000000000e+00,6.938893903907228378e-18,0.000000000000000000e+00,-3.469446951953614189e-18,-1.734723475976807094e-18,3.469446951953614189e-18,-1.734723475976807094e-18,8.673617379884035472e-19,8.673617379884035472e-19,0.000000000000000000e+00,0.000000000000000000e+00,0.000000000000000000e+00,0.000000000000000000e+00
0.000000000000000000e+00,0.000000000000000000e+00,0.000000000000000000e+00,0.000000000000000000e+00,0.000000000000000000e+00,0.000000000000000000e+00,0.000000000000000000e+00,0.000000000000000000e+00,0.000000000000000000e+00,0.000000000000000000e+00,0.000000000000000000e+00,0.000000000000000000e+00,-2.081668171172168513e-17,2.775557561562891351e-17,3.469446951953614189e-17,3.469446951953614189e-17,0.000000000000000000e+00,0.000000000000000000e+00,0.000000000000000000e+00,0.000000000000000000e+00,0.000000000000000000e+00,0.000000000000000000e+00,0.000000000000000000e+00,0.000000000000000000e+00,0.000000000000000000e+00,0.000000000000000000e+00,0.000000000000000000e+00,0.000000000000000000e+00,0.000000000000000000e+00,0.000000000000000000e+00,0.000000000000000000e+00,0.000000000000000000e+00,4.163336342344337027e-17,2.081668171172168513e-17,-1.387778780781445676e-17,5.551115123125782702e-17,5.551115123125782702e-17,2.775557561562891351e-17,-5.551115123125782702e-17,8.326672684688674053e-17,0.000000000000000000e+00,1.110223024625156540e-16,1.387778780781445676e-16,1.443230698916894705e-02,4.095433766315995094e-02,1.976256348077912173e-02,0.000000000000000000e+00,2.775557561562891351e-17,1.387778780781445676e-17,4.163336342344337027e-17,2.775557561562891351e-17,-1.387778780781445676e-17,0.000000000000000000e+00,0.000000000000000000e+00,0.000000000000000000e+00,0.000000000000000000e+00,0.000000000000000000e+00,0.000000000000000000e+00,4.163336342344337027e-17,3.469446951953614189e-17,-6.938893903907228378e-18,1.387778780781445676e-17,1.110223024625156540e-16,-5.551115123125782702e-17,-1.110223024625156540e-16,-5.551115123125782702e-17,2.775557561562891351e-16,3.330669073875469621e-16,1.110223024625156540e-16,-4.440892098500626162e-16,-2.138169942695888892e-03,-1.196630084137928485e-02,-1.284655785773880510e-02,-1.260369510136083449e-02,-9.532497263607941917e-04,-1.674787875619143662e-03,-2.766136673987062977e-03,-5.381801311474254668e-04,-1.110223024625156540e-16,2.775557561562891351e-17,0.000000000000000000e+00,-6.938893903907228378e-18,0.000000000000000000e+00,0.000000000000000000e+00,0.000000000000000000e+00,0.000000000000000000e+00,6.938893903907228378e-18,-8.542828528064864979e-03,-5.717770962615470465e-02,5.551115123125782702e-17,0.000000000000000000e+00,2.775557561562891351e-16,-7.955637400359838463e-02,9.397589532869154993e-02,4.023256862990709504e-02,-3.953157625614522885e-02,1.692193548101694756e-01,1.560616587871941352e-01,-1.552513366344656642e-01,5.225158063731472069e-02,-3.701425165478983148e-02,-1.943451368726118456e-01,-3.444464348622097716e-01,3.494236557178687086e-02,1.465938598247338298e-01,-1.461617200515147874e-01,-3.441105256858484340e-02,-7.055641864482140035e-02,-1.136084579491175861e-01,9.084277004033119995e-02,3.469446951953614189e-17,0.000000000000000000e+00,0.000000000000000000e+00,4.163336342344337027e-17,2.081668171172168513e-17,-7.010281413174973553e-03,8.326672684688674053e-17,1.110223024625156540e-16,-4.350927905992341138e-03,-3.584164622284535806e-02,-6.398076772779914823e-02,7.895445304901749228e-02,1.505760557661096621e-01,5.126257785070575945e-02,-1.760221041932963359e-02,3.511373201809777633e-01,-9.492943870805592432e-02,3.297484026084118724e-02,-3.222295039875405220e-01,8.224782157072835220e-02,-3.432910533973256850e-01,1.470332971911367803e-01,1.492813034640685377e-01,-1.938988171230282553e-01,5.826631390851311210e-02,5.867206317344808575e-02,1.205915630470726363e-01,-6.762297426834795733e-02,4.163336342344337027e-17,0.000000000000000000e+00,0.000000000000000000e+00,0.000000000000000000e+00,2.775557561562891351e-17,-2.704431030227852362e-02,5.551115123125782702e-17,-9.958451647674604335e-02,-4.794077153502884769e-03,1.593477425321998542e-01,-5.914894907818979419e-02,-2.283539171421512526e-01,2.414128975744154193e-01,-1.435138332268786066e-01,-1.535209591838282983e-01,4.363922428025068800e-02,1.376593392485542244e-01,2.636580422784617905e-01,1.120784090835380969e-01,-1.248741507776681692e-01,2.785124125196714040e-01,-1.129062268153502302e-01,-2.527342429149781466e-01,-1.337213653087743204e-01,1.697038477362120545e-01,-3.186595084281378387e-01,-2.534286800165996834e-01,2.302445281133210786e-01,1.110223024625156540e-16,3.469446951953614189e-17,0.000000000000000000e+00,4.163336342344337027e-17,1.387778780781445676e-17,-5.551115123125782702e-17,-1.601444310553101769e-02,4.185747764456837494e-02,1.528342077626652085e-01,-2.067465750045167638e-01,-1.907076965960510240e-01,1.893961973697599888e-01,-1.353815990596460850e-01,2.150625289478068081e-01,-5.106431925351642143e-01,1.168385659102018082e-01,2.469925030145376788e-01,-3.936737978176441111e-01,8.475410535031480119e-02,-5.065428593972691462e-02,5.510692236466885330e-02,-1.654891015405890453e-02,4.164102865458807479e-02,5.898173485345448164e-02,1.716445701463356066e-01,-2.574881515881743965e-02,-5.469590553963732393e-02,-2.078745543782335448e-01,-3.044104245334600112e-02,-1.387778780781445676e-17,0.000000000000000000e+00,2.775557561562891351e-17,1.110223024625156540e-16,1.665334536937734811e-16,-1.335540001130408605e-02,7.294697582750753195e-02,-5.449184578275056978e-02,-1.541938286898463240e-01,-3.226711421307819627e-01,-4.753762740823752608e-02,-6.477554396495310840e-02,2.181797868667447737e-01,1.414722296649196798e-01,-4.920774777590120053e-02,1.039195614934013134e-01,3.480003901270434935e-02,-8.109819549816943418e-02,-5.471075927529645000e-02,2.672433261718522024e-01,7.134238375453572090e-04,-1.286743795127792689e-01,-1.711992679872060830e-01,-2.042468048408592196e-01,2.162371114054986165e-01,-3.138982714207960711e-02,4.821415658690286765e-02,-1.358844462390340624e-02,-1.498193451920093455e-04,2.775557561562891351e-17,5.551115123125782702e-17,-5.551115123125782702e-17,4.440892098500626162e-16,2.220446049250313081e-16,-7.544951003332589501e-02,-1.270830234379660695e-02,1.560016205723604443e-01,-1.151305228302446082e-01,-7.323825202145384239e-02,-1.486860059894724029e-01,1.116353065669430933e-01,2.416885829984304068e-02,1.555046514196112284e-02,-4.418654966933277528e-02,2.370009848954280907e-01,-4.720225681369449866e-02,4.781744593940043253e-02,3.719016790363317004e-01,-9.347652887779944741e-02,1.808925998738946661e-01,1.524727244240125512e-01,1.287648648737651502e-01,-5.119856482242024498e-02,-2.358324369719145830e-01,-1.036159909902489851e-01,-6.745845071420786265e-03,-1.015738666004932511e-02,-6.938893903907228378e-18,5.551115123125782702e-17,5.033712197567452584e-02,5.938883912608661220e-03,9.294198267965958493e-03,-1.847513717659721166e-02,7.429879998022603793e-02,-2.711370504045914620e-01,-1.022006310823644348e-01,1.339618032938704184e-01,-2.947827475534994246e-01,-4.592741852931466195e-01,-4.011864827257638488e-02,2.634591885220149976e-01,3.622722096732688968e-02,-3.710712251748216062e-01,1.863363207622164008e-01,2.720684093964882422e-01,-5.751200199580100425e-02,-3.668609497204355918e-02,2.480958948375596718e-01,7.451271136643747295e-03,-7.847317389808705634e-02,9.704985802645849091e-02,-6.086217209025890362e-02,-6.121361992501501981e-02,-1.971971090595309173e-02,-6.584537291100117651e-04,-1.387778780781445676e-17,-2.775557561562891351e-17,2.604634060886754088e-01,1.252564908207594030e-01,5.238356530523602395e-02,1.786532140282288683e-01,6.003410088812050072e-02,-1.215901847956960546e-01,-2.134240606100019644e-01,-2.636322676774326412e-01,1.333197824845144819e-01,-2.694680130749032010e-01,2.454350679457695250e-02,-1.844575290961065761e-01,1.409809067573846164e-01,-4.408401044089904630e-02,-2.407957833122726932e-01,1.140517982596018776e-01,2.710898294005414932e-02,5.466958380879283208e-02,1.868254805810897756e-01,-2.158579040182289632e-01,2.897068570271801313e-01,2.141098595859085574e-01,-1.189557757961212658e-02,-1.102041886131034376e-01,-2.861013326586303585e-02,2.775557561562891351e-17,2.775557561562891351e-17,0.000000000000000000e+00,1.110223024625156540e-16,-1.906861012855518012e-01,-4.160131280072724147e-01,-2.240726669435168794e-01,-2.127296405372083588e-01,3.030926133497433561e-01,-3.444301076403666340e-02,1.048221987084032580e-01,2.215040510104728799e-01,-9.821458937088856089e-03,-4.046382975654401193e-01,-6.293827039586030736e-02,-1.768176933541205642e-01,-4.197070591377267679e-01,1.501295966339062371e-01,1.241499140579696570e-01,9.172490147296638585e-02,2.790144265108042143e-01,3.002234992040150319e-01,2.116878055074291609e-01,9.120266639685947752e-02,3.895040467616817104e-02,-1.702136486651175673e-01,-9.602656356295713458e-02,1.222112008381970316e-02,2.775557561562891351e-17,3.469446951953614189e-17,-4.163336342344337027e-17,1.665334536937734811e-16,-2.099979749628136383e-02,2.400956776758798594e-01,-3.180230339205580847e-02,1.097597962111433456e-01,5.717453301567626545e-02,-1.402400101785389319e-02,3.327204028093055932e-03,-2.520897907923607129e-01,1.777195508890296871e-01,-6.108038180125330285e-02,-9.251116583987006869e-02,-1.856414002686919695e-01,-2.509074112126976619e-01,-3.785966551037001082e-02,-2.015802082739670542e-01,-4.947339349640253459e-02,-5.082970768917993709e-02,-1.261434838186636931e-02,2.060317745399002920e-01,-1.622697300920268315e-01,1.112599849543809416e-01,4.145310748081247887e-01,4.522797722961424682e-02,-3.033453351945653576e-01,2.775557561562891351e-17,4.163336342344337027e-17,-2.775557561562891351e-17,-2.775557561562891351e-17,1.656581203736725572e-01,8.834002408452112931e-02,5.350202091047817632e-02,3.272299259466455723e-01,-2.020402498308346839e-01,-1.291112636644076161e-02,-2.245518606819375540e-01,5.313002986008119599e-02,-1.242495465890258721e-02,-1.432563211878729037e-01,-2.295039864605337154e-01,1.746199823646530369e-01,-6.593111535142410773e-01,-1.626960243711619292e-01,1.607065478427616156e-02,8.679098716680089254e-02,1.762122137284367618e-01,1.044870361674710146e-02,-5.525464727494266981e-03,6.199192740023917736e-01,2.618541831942080567e-01,-5.647523156278033696e-03,-1.134162027143545970e-01,-1.697640657008015752e-01,1.387778780781445676e-17,0.000000000000000000e+00,-6.938893903907228378e-18,-2.775557561562891351e-17,-3.949874973980042059e-01,-1.509992488536127109e-02,2.512305599546915680e-02,-4.705761797490670695e-02,8.254698798308435226e-02,2.991976436098919834e-01,2.239999840990636315e-02,-2.638560280687962667e-01,2.114854505112355176e-01,1.456318555175442064e-01,-1.826021471100829352e-01,-3.131157456632216451e-01,-3.067759370545388720e-01,-3.055323363819884008e-02,1.970554699391038334e-01,2.601692790874976513e-02,1.605552232727165407e-01,7.290268295876001226e-02,3.625984753130244709e-01,1.948265660939063615e-02,1.664041226996082479e-01,8.765740057755855297e-02,8.003492333863926333e-02,-8.326672684688674053e-17,6.938893903907228378e-18,0.000000000000000000e+00,0.000000000000000000e+00,-1.387778780781445676e-17,-7.320741427989274630e-02,-3.990702107379162644e-02,1.321853402492785268e-01,1.239493114071963387e-01,4.965735826156114641e-02,-9.371705738611990633e-02,1.039095101470695059e-01,-2.663181482393173205e-02,-2.296226766243503192e-02,3.687210008237893355e-01,-5.958218853024330741e-01,-4.746942464085499580e-01,-1.602500840197302878e-01,1.294769086158735760e-01,2.246557313663259947e-01,-1.694134575775985141e-02,2.525954270110153388e-02,1.369949434499537766e-01,1.273017933144642289e-01,2.048523733098768229e-01,-9.376418166823885514e-02,1.220649365750214876e-01,-3.891220547766804927e-02,2.220446049250313081e-16,-1.387778780781445676e-17,0.000000000000000000e+00,0.000000000000000000e+00,2.775557561562891351e-17,1.675140342974359986e-01,4.096313297178211243e-02,-3.105544238182917915e-01,2.461650644682102929e-01,2.003013746930726313e-02,5.806024428249711988e-02,1.685916594016449999e-01,6.820523722437671355e-02,4.835559329020044927e-02,9.837526822000874915e-02,-3.735694691772240006e-01,-2.776017567004886999e-01,-5.981404494115771797e-03,3.258661710088315289e-01,2.392258133820934773e-02,1.192359981984590367e-01,1.197437962172227532e-01,1.425810570206342831e-01,-5.422122209871149678e-03,2.703091301667237545e-03,-2.188416995023700906e-02,-6.813432943384523099e-02,-4.065786552759009798e-02,5.551115123125782702e-17,1.409940068200790653e-03,0.000000000000000000e+00,2.081668171172168513e-17,1.665334536937734811e-16,6.688958266076205916e-02,1.993192031926831476e-01,2.931474598162653322e-02,-3.001196000227235317e-02,1.470207829451326553e-01,1.531851800129140351e-01,3.454145831258037536e-01,1.842116143230653202e-01,-1.417293264660357544e-02,1.253819028116289758e-01,-3.053255821342482079e-02,2.531800110151305461e-02,1.419309714456256089e-01,2.001419422596941722e-01,-9.275495186442150874e-02,1.431741427634771746e-01,1.463501396296109647e-01,1.914463952106799649e-01,8.787365261643031999e-02,-1.996472731590315242e-02,-1.449175748676312381e-02,2.869586997663597927e-04,-1.031113214256149796e-02,-5.551115123125782702e-17,1.638177406393462321e-02,4.857225732735059864e-17,1.387778780781445676e-17,2.775557561562891351e-17,-1.354165169293197191e-01,-8.265367352109231902e-02,-1.965286987322669709e-01,-1.622602365614858044e-01,6.071120868642276847e-02,1.070708197822201058e-02,2.045960239310319340e-01,1.904052543546991272e-02,1.655024558157984216e-01,-1.587906100178901880e-01,-3.415101064723811142e-01,-1.443453556091562895e-01,-4.149459185111639137e-01,-2.193361249140557412e-02,-3.010499713994607696e-02,1.004532993031906074e-01,-2.111590170573450775e-01,-3.926664509728178265e-01,1.973399748064585957e-02,1.211170407517661030e-01,1.488303584170027616e-01,-7.458162348065675018e-02,-3.478746350364370077e-02,2.775557561562891351e-17,-1.387778780781445676e-17,0.000000000000000000e+00,4.163336342344337027e-17,1.665334536937734811e-16,-7.052323003473748297e-02,1.387413696583954525e-01,-7.074926190265884429e-02,7.066101302857052957e-02,2.694824250550231781e-02,1.121342685053434707e-01,1.322097165461988411e-02,2.126924625412340286e-01,7.971737860193503500e-02,6.896191400513895786e-02,-6.443118706380390748e-02,-7.923634962098136114e-02,-4.344291440544223448e-02,9.841619313960858761e-02,-1.216675350446616566e-01,7.999729993463600142e-02,1.897217907193985420e-01,-3.445700342363252622e-01,8.202033248400331100e-02,3.509371262534810576e-02,-1.015434279106599280e-01,-8.361991845870384021e-02,2.220446049250313081e-16,-8.326672684688674053e-17,4.857225732735059864e-17,0.000000000000000000e+00,3.469446951953614189e-17,-5.551115123125782702e-17,8.734791246592987779e-03,-3.552309604889989370e-01,-3.534729761776156387e-02,-1.098018837428198502e-01,1.420901407638175407e-01,-2.405554194844041760e-01,-1.685868392844223074e-01,1.423238971064059166e-01,2.935160485586874035e-02,2.784963705319033478e-01,-3.586327753201690172e-02,-3.516402038469057523e-02,1.074113362077838696e-01,-1.325347259930169663e-01,-1.596236247620101412e-01,-2.557068731257265970e-01,-1.604070929106993226e-02,1.306217020758638769e-01,3.067571892025022784e-02,-9.393861991737907646e-02,3.707720291297234017e-03,6.734308535502908644e-02,4.090457226646915245e-03,2.715100268073392109e-02,5.551115123125782702e-17,4.163336342344337027e-17,-1.387778780781445676e-17,2.220446049250313081e-16,-3.935993377646684888e-02,1.987791273395310143e-01,2.226809116218291251e-01,3.252620478557277650e-02,4.442713632519845746e-02,-1.430026102879962124e-01,6.144643453201004135e-02,1.711180094545916575e-01,2.611903591486952614e-01,1.560871494935791581e-01,-3.959154742057346965e-02,-2.527172358953966302e-01,7.738021504734066136e-02,1.446847160718304215e-01,-5.696452143478314412e-01,8.187250527526024335e-02,-5.336846722450228064e-02,-1.388756892459988568e-01,-1.800129863251437312e-01,-1.046146019614758726e-01,1.593265114031984786e-01,2.276419276223873300e-02,9.425445232436213683e-03,5.945946376910596354e-02,3.469446951953614189e-17,3.469446951953614189e-17,0.000000000000000000e+00,-2.775557561562891351e-17,9.500753794041527645e-03,2.267243823893716481e-02,1.059896088783003898e-01,-1.940732016201196508e-02,-3.144508571212556447e-02,-1.745975094995455557e-02,2.780101656584599290e-02,-6.977475847632774730e-02,-1.637435833043401345e-01,2.052071035002911437e-01,4.446094806754496975e-01,-1.724284889334803950e-02,-1.215863519735078668e-01,3.690663830983387239e-02,8.043206487483534062e-02,-2.685700579296756429e-01,-1.012348151062877621e-01,-1.713533272690263842e-02,4.675384004506305535e-02,-1.924757732363552298e-01,-2.757288994808426708e-03,-7.545704862379487565e-04,8.834166109868479833e-03,6.017349411615598859e-02,2.775557561562891351e-17,0.000000000000000000e+00,0.000000000000000000e+00,5.551115123125782702e-17,5.551115123125782702e-17,-3.411194845020851796e-01,-6.287915305508695596e-02,5.932533367922276923e-02,-9.158233526672597546e-02,2.271226214571312185e-01,-1.336578220350941315e-01,2.164973726991403780e-02,1.195792165913345251e-01,-1.318435570887501740e-01,3.209179767727809995e-02,1.031683416457382929e-01,9.273771636429223308e-02,1.129874708870523825e-01,-2.581329303299384481e-02,1.532715787732537582e-01,-4.342764757902961570e-02,-3.263324330633743386e-02,-2.137409466931758928e-01,-8.089709945265666224e-02,-8.279534660336484997e-03,-1.801566568162549231e-03,-8.326672684688674053e-17,4.163336342344337027e-17,0.000000000000000000e+00,0.000000000000000000e+00,0.000000000000000000e+00,2.775557561562891351e-17,1.665334536937734811e-16,5.242678782517062874e-02,-2.507254363336897107e-02,-7.918005252036752761e-02,1.187579786570474027e-01,-1.068106865350225698e-01,2.881190090265328685e-02,1.827532501748674321e-02,-6.285253571613114154e-02,7.416341233762768770e-02,-4.708015806526633096e-02,2.596384305856686003e-01,-1.588945152853545872e-01,-2.034260928882947184e-02,-1.039825090532620067e-02,4.918987760620296967e-02,2.099301498088343987e-01,-1.111243171718279132e-02,-1.370312837398701689e-02,-7.638928345558126942e-03,-1.743403662633813411e-03,-3.784481592235794389e-03,5.551115123125782702e-17,-2.081668171172168513e-17,0.000000000000000000e+00,0.000000000000000000e+00,0.000000000000000000e+00,2.081668171172168513e-17,-1.387778780781445676e-17,1.387778780781445676e-16,-5.551115123125782702e-17,-1.200952603481844627e-01,-1.366453419224684662e-01,1.461351874938352502e-01,-3.543469402606369556e-02,-7.605118074797978522e-02,-1.820677949457552014e-01,-4.001931205172206685e-01,-4.453922995498338366e-02,7.304333301187715399e-02,-3.605620810861553949e-02,-2.204833554232799031e-02,-9.224262546020889353e-02,-9.384065179031408910e-02,-7.189043559039376419e-03,0.000000000000000000e+00,4.996003610813204432e-16,-6.468691295880013570e-05,-2.302266970294813975e-03,-5.372062749702588569e-03,-6.938893903907228378e-18,3.469446951953614189e-17,0.000000000000000000e+00,0.000000000000000000e+00,0.000000000000000000e+00,0.000000000000000000e+00,0.000000000000000000e+00,4.163336342344337027e-17,1.387778780781445676e-16,5.551115123125782702e-17,2.220446049250313081e-16,7.771561172376095783e-16,1.110223024625156540e-16,-3.930765823672466297e-03,-3.195982011651743449e-02,-4.643638338692013257e-02,-2.750799162718520208e-02,-2.786516176159103964e-03,6.661338147750939243e-16,-4.456495013180239440e-03,-5.334949420506673867e-02,-1.653939387130154426e-02,3.330669073875469621e-16,-1.665334536937734811e-16,2.220446049250313081e-16,0.000000000000000000e+00,4.163336342344337027e-17,2.081668171172168513e-17,3.469446951953614189e-17,0.000000000000000000e+00,0.000000000000000000e+00,0.000000000000000000e+00,0.000000000000000000e+00,0.000000000000000000e+00,0.000000000000000000e+00,0.000000000000000000e+00,-1.387778780781445676e-17,1.387778780781445676e-17,2.775557561562891351e-17,1.665334536937734811e-16,-8.326672684688674053e-17,5.551115123125782702e-17,1.110223024625156540e-16,-1.110223024625156540e-16,-2.775557561562891351e-16,-5.551115123125782702e-17,5.551115123125782702e-17,5.551115123125782702e-17,5.551115123125782702e-17,2.775557561562891351e-17,2.775557561562891351e-17,2.775557561562891351e-17,1.387778780781445676e-17,1.387778780781445676e-17,0.000000000000000000e+00,0.000000000000000000e+00,0.000000000000000000e+00,0.000000000000000000e+00,0.000000000000000000e+00
